{"reward": -21.0, "episode": 115, "_runtime": 5292, "_timestamp": 1645132605, "_step": 115, "gradients/projection.2.bias": {"_type": "histogram", "values": [1.0, 0.0, 0.0, 0.0, 0.0, 0.0, 0.0, 0.0, 1.0, 0.0, 0.0, 0.0, 0.0, 0.0, 1.0, 0.0, 0.0, 1.0, 1.0, 0.0, 0.0, 0.0, 1.0, 0.0, 0.0, 0.0, 1.0, 1.0, 0.0, 0.0, 0.0, 1.0, 3.0, 2.0, 0.0, 1.0, 2.0, 2.0, 0.0, 2.0, 1.0, 0.0, 2.0, 0.0, 1.0, 0.0, 1.0, 1.0, 0.0, 1.0, 0.0, 0.0, 0.0, 0.0, 0.0, 1.0, 0.0, 0.0, 0.0, 1.0, 1.0, 0.0, 0.0, 1.0], "bins": [-0.0673113539814949, -0.06439685076475143, -0.061482347548007965, -0.0585678406059742, -0.05565333738923073, -0.05273883417248726, -0.04982432723045349, -0.04690982401371002, -0.04399532079696655, -0.041080817580223083, -0.038166314363479614, -0.03525180742144585, -0.03233730420470238, -0.029422800987958908, -0.02650829590857029, -0.02359379082918167, -0.020679287612438202, -0.017764784395694733, -0.014850279316306114, -0.01193577516824007, -0.009021271020174026, -0.006106766872107983, -0.0031922627240419388, -0.0002777576446533203, 0.002636745572090149, 0.005551249720156193, 0.008465753868222237, 0.01138025801628828, 0.014294762164354324, 0.017209265381097794, 0.020123770460486412, 0.02303827553987503, 0.025952771306037903, 0.028867274522781372, 0.03178177773952484, 0.03469628468155861, 0.03761078789830208, 0.04052529111504555, 0.043439798057079315, 0.046354301273822784, 0.049268804490566254, 0.05218330770730972, 0.05509781092405319, 0.05801231786608696, 0.06092682108283043, 0.0638413280248642, 0.06675583124160767, 0.06967033445835114, 0.0725848376750946, 0.07549934089183807, 0.07841384410858154, 0.08132834732532501, 0.08424285054206848, 0.08715736120939255, 0.09007186442613602, 0.09298636764287949, 0.09590087085962296, 0.09881537407636642, 0.1017298772931099, 0.10464438050985336, 0.10755889117717743, 0.1104733943939209, 0.11338789761066437, 0.11630240082740784, 0.1192169040441513]}, "gradients/projection.2.weight": {"_type": "histogram", "values": [1.0, 0.0, 0.0, 0.0, 0.0, 0.0, 0.0, 1.0, 0.0, 2.0, 1.0, 7.0, 10.0, 11.0, 24.0, 61.0, 88.0, 211.0, 1902.0, 447.0, 318.0, 241.0, 180.0, 145.0, 116.0, 76.0, 58.0, 41.0, 36.0, 20.0, 21.0, 11.0, 12.0, 9.0, 10.0, 3.0, 8.0, 3.0, 5.0, 1.0, 1.0, 3.0, 3.0, 2.0, 0.0, 1.0, 0.0, 0.0, 0.0, 1.0, 3.0, 1.0, 0.0, 0.0, 0.0, 0.0, 0.0, 0.0, 0.0, 0.0, 0.0, 0.0, 0.0, 1.0], "bins": [-0.2864753007888794, -0.27104315161705017, -0.25561103224754333, -0.2401788830757141, -0.22474674880504608, -0.20931461453437805, -0.19388246536254883, -0.1784503310918808, -0.16301819682121277, -0.14758606255054474, -0.1321539282798767, -0.11672177910804749, -0.10128964483737946, -0.08585751056671143, -0.0704253688454628, -0.05499322712421417, -0.03956109285354614, -0.024128954857587814, -0.008696816861629486, 0.006735321134328842, 0.02216745913028717, 0.0375995934009552, 0.05303173512220383, 0.06846387684345245, 0.08389601111412048, 0.09932814538478851, 0.11476028710603714, 0.13019242882728577, 0.1456245630979538, 0.16105669736862183, 0.17648884654045105, 0.19192098081111908, 0.2073531150817871, 0.22278524935245514, 0.23821738362312317, 0.2536495327949524, 0.26908165216445923, 0.28451380133628845, 0.2999459505081177, 0.3153780698776245, 0.33081021904945374, 0.34624236822128296, 0.3616744875907898, 0.377106636762619, 0.39253878593444824, 0.4079709053039551, 0.4234030544757843, 0.4388352036476135, 0.45426732301712036, 0.4696994721889496, 0.4851315915584564, 0.5005637407302856, 0.5159958600997925, 0.5314279794692993, 0.5468601584434509, 0.5622922778129578, 0.5777244567871094, 0.5931565761566162, 0.6085887551307678, 0.6240208745002747, 0.6394529938697815, 0.6548851728439331, 0.6703172922134399, 0.6857494115829468, 0.7011815309524536]}, "gradients/projection.0.bias": {"_type": "histogram", "values": [1.0, 0.0, 0.0, 0.0, 0.0, 0.0, 0.0, 1.0, 0.0, 0.0, 0.0, 2.0, 0.0, 0.0, 1.0, 1.0, 0.0, 1.0, 1.0, 0.0, 0.0, 0.0, 0.0, 0.0, 0.0, 0.0, 2.0, 1.0, 4.0, 8.0, 5.0, 6.0, 59.0, 6.0, 5.0, 10.0, 2.0, 1.0, 4.0, 1.0, 2.0, 0.0, 0.0, 0.0, 0.0, 0.0, 0.0, 1.0, 0.0, 0.0, 0.0, 0.0, 0.0, 0.0, 0.0, 0.0, 0.0, 2.0, 0.0, 0.0, 0.0, 0.0, 0.0, 1.0], "bins": [-0.30524367094039917, -0.2958844006061554, -0.28652510046958923, -0.27716583013534546, -0.2678065598011017, -0.2584472894668579, -0.24908798933029175, -0.23972871899604797, -0.230369433760643, -0.22101014852523804, -0.21165087819099426, -0.2022915929555893, -0.19293230772018433, -0.18357303738594055, -0.17421375215053558, -0.16485446691513062, -0.15549519658088684, -0.14613591134548187, -0.1367766410112381, -0.12741735577583313, -0.11805807799100876, -0.10869880020618439, -0.09933951497077942, -0.08998023718595505, -0.08062095940113068, -0.0712616816163063, -0.061902400106191635, -0.052543118596076965, -0.043183840811252594, -0.03382456302642822, -0.024465281516313553, -0.015106000006198883, -0.005746692419052124, 0.0036125872284173965, 0.012971866875886917, 0.022331146523356438, 0.03169042617082596, 0.04104970395565033, 0.050408985465765, 0.05976826697587967, 0.06912754476070404, 0.07848682254552841, 0.08784610033035278, 0.09720538556575775, 0.10656466335058212, 0.1159239411354065, 0.12528322637081146, 0.13464251160621643, 0.1440017819404602, 0.15336106717586517, 0.16272033751010895, 0.17207962274551392, 0.1814388930797577, 0.19079817831516266, 0.20015746355056763, 0.2095167338848114, 0.21887601912021637, 0.22823530435562134, 0.2375945746898651, 0.24695385992527008, 0.25631314516067505, 0.2656724154949188, 0.2750316858291626, 0.28439098596572876, 0.29375025629997253]}, "gradients/projection.0.weight": {"_type": "histogram", "values": [1.0, 1.0, 0.0, 0.0, 0.0, 0.0, 2.0, 0.0, 1.0, 1.0, 1.0, 3.0, 1.0, 1.0, 2.0, 5.0, 5.0, 3.0, 10.0, 4.0, 9.0, 17.0, 18.0, 17.0, 32.0, 45.0, 55.0, 90.0, 121.0, 262.0, 511.0, 1709.0, 58523.0, 2630.0, 705.0, 304.0, 158.0, 86.0, 57.0, 33.0, 23.0, 14.0, 19.0, 9.0, 8.0, 5.0, 8.0, 6.0, 2.0, 4.0, 3.0, 2.0, 1.0, 0.0, 1.0, 2.0, 0.0, 1.0, 2.0, 0.0, 0.0, 2.0, 0.0, 1.0], "bins": [-0.38135799765586853, -0.36966949701309204, -0.35798096656799316, -0.3462924659252167, -0.3346039652824402, -0.3229154348373413, -0.3112269341945648, -0.29953843355178833, -0.28784990310668945, -0.27616140246391296, -0.2644728720188141, -0.2527843713760376, -0.24109585583209991, -0.22940734028816223, -0.21771883964538574, -0.20603032410144806, -0.19434180855751038, -0.1826532930135727, -0.170964777469635, -0.15927627682685852, -0.14758776128292084, -0.13589924573898315, -0.12421073764562607, -0.11252222955226898, -0.1008337140083313, -0.08914519846439362, -0.07745669037103653, -0.06576818227767944, -0.05407966673374176, -0.042391154915094376, -0.03070264309644699, -0.019014135003089905, -0.007325589656829834, 0.004362922161817551, 0.016051433980464935, 0.02773994579911232, 0.039428457617759705, 0.05111696943640709, 0.06280548125505447, 0.07449398934841156, 0.08618250489234924, 0.09787102043628693, 0.10955952852964401, 0.1212480366230011, 0.13293655216693878, 0.14462506771087646, 0.15631356835365295, 0.16800208389759064, 0.17969059944152832, 0.191379114985466, 0.2030676305294037, 0.21475613117218018, 0.22644464671611786, 0.23813316226005554, 0.24982166290283203, 0.2615101933479309, 0.2731986939907074, 0.2848871946334839, 0.29657572507858276, 0.30826422572135925, 0.31995272636413574, 0.3316412568092346, 0.3433297574520111, 0.3550182580947876, 0.3667067885398865]}, "gradients/policy_fc.bias": {"_type": "histogram", "values": [1.0, 0.0, 0.0, 0.0, 0.0, 0.0, 0.0, 1.0, 1.0, 0.0, 0.0, 1.0, 0.0, 0.0, 1.0, 0.0, 0.0, 0.0, 0.0, 0.0, 0.0, 0.0, 0.0, 0.0, 0.0, 0.0, 0.0, 0.0, 0.0, 0.0, 0.0, 0.0, 0.0, 0.0, 0.0, 0.0, 0.0, 0.0, 0.0, 0.0, 0.0, 0.0, 0.0, 0.0, 0.0, 0.0, 0.0, 0.0, 0.0, 0.0, 0.0, 0.0, 0.0, 0.0, 0.0, 0.0, 0.0, 0.0, 0.0, 0.0, 0.0, 0.0, 0.0, 1.0], "bins": [-0.0035896338522434235, -0.003008169587701559, -0.0024267053231596947, -0.001845241291448474, -0.0012637770269066095, -0.0006823127623647451, -0.0001008487306535244, 0.00048061553388834, 0.0010620797984302044, 0.0016435440629720688, 0.002225008327513933, 0.002806472359225154, 0.0033879366237670183, 0.003969401121139526, 0.0045508649200201035, 0.005132329184561968, 0.005713793449103832, 0.006295257713645697, 0.006876721978187561, 0.007458185777068138, 0.00803965050727129, 0.008621114306151867, 0.009202579036355019, 0.009784042835235596, 0.010365506634116173, 0.01094697043299675, 0.011528435163199902, 0.012109898962080479, 0.01269136369228363, 0.013272827491164207, 0.013854291290044785, 0.014435756020247936, 0.015017220750451088, 0.015598684549331665, 0.016180148348212242, 0.01676161400973797, 0.017343077808618546, 0.017924541607499123, 0.0185060054063797, 0.019087471067905426, 0.019668934866786003, 0.02025039866566658, 0.020831862464547157, 0.021413328126072884, 0.02199479192495346, 0.022576255723834038, 0.023157719522714615, 0.02373918518424034, 0.02432064712047577, 0.024902110919356346, 0.025483574718236923, 0.02606504037976265, 0.026646504178643227, 0.027227967977523804, 0.02780943177640438, 0.028390895575284958, 0.028972361236810684, 0.02955382503569126, 0.03013528883457184, 0.030716754496097565, 0.03129821643233299, 0.03187968209385872, 0.032461147755384445, 0.03304260969161987, 0.0336240753531456]}, "gradients/policy_fc.weight": {"_type": "histogram", "values": [3.0, 3.0, 5.0, 17.0, 60.0, 2442.0, 291.0, 89.0, 23.0, 23.0, 13.0, 8.0, 8.0, 8.0, 6.0, 11.0, 4.0, 10.0, 8.0, 5.0, 0.0, 3.0, 4.0, 5.0, 3.0, 3.0, 1.0, 1.0, 1.0, 1.0, 1.0, 1.0, 0.0, 1.0, 0.0, 2.0, 0.0, 1.0, 1.0, 0.0, 1.0, 1.0, 0.0, 1.0, 0.0, 0.0, 0.0, 0.0, 0.0, 1.0, 0.0, 0.0, 0.0, 0.0, 0.0, 0.0, 0.0, 0.0, 1.0, 0.0, 0.0, 0.0, 0.0, 1.0], "bins": [-0.004141556564718485, -0.0034134984016418457, -0.0026854402385652065, -0.001957382308319211, -0.0012293241452425718, -0.0005012659821659327, 0.00022679194808006287, 0.000954850111156702, 0.0016829082742333412, 0.0024109664373099804, 0.0031390246003866196, 0.003867082530632615, 0.004595140926539898, 0.00532319862395525, 0.006051256787031889, 0.006779314950108528, 0.007507373113185167, 0.008235431276261806, 0.008963488973677158, 0.009691547602415085, 0.010419605299830437, 0.011147663928568363, 0.011875721625983715, 0.012603780254721642, 0.013331837952136993, 0.014059895649552345, 0.014787954278290272, 0.015516011975705624, 0.01624407060444355, 0.016972128301858902, 0.017700185999274254, 0.018428243696689606, 0.019156301394104958, 0.01988435909152031, 0.02061241678893566, 0.021340476348996162, 0.022068534046411514, 0.022796591743826866, 0.023524649441242218, 0.02425270900130272, 0.02498076669871807, 0.025708824396133423, 0.026436882093548775, 0.027164941653609276, 0.027892999351024628, 0.02862105704843998, 0.02934911474585533, 0.030077174305915833, 0.030805230140686035, 0.031533289700746536, 0.03226134553551674, 0.03298940509557724, 0.03371746093034744, 0.034445520490407944, 0.035173580050468445, 0.03590163588523865, 0.03662969544529915, 0.03735775500535965, 0.03808581084012985, 0.03881387040019035, 0.039541926234960556, 0.04026998579502106, 0.04099804535508156, 0.04172610118985176, 0.04245416074991226]}, "gradients/encoder_fc.0.bias": {"_type": "histogram", "values": [1.0, 0.0, 0.0, 0.0, 0.0, 0.0, 0.0, 0.0, 0.0, 0.0, 0.0, 0.0, 0.0, 0.0, 0.0, 1.0, 1.0, 1.0, 0.0, 1.0, 0.0, 0.0, 2.0, 0.0, 0.0, 0.0, 0.0, 1.0, 1.0, 2.0, 2.0, 2.0, 3.0, 2.0, 6.0, 7.0, 4.0, 5.0, 6.0, 10.0, 11.0, 14.0, 336.0, 11.0, 13.0, 10.0, 9.0, 9.0, 7.0, 4.0, 6.0, 3.0, 3.0, 6.0, 3.0, 0.0, 1.0, 4.0, 1.0, 1.0, 0.0, 1.0, 0.0, 1.0], "bins": [-0.37948015332221985, -0.37062710523605347, -0.3617740273475647, -0.3529209792613983, -0.34406793117523193, -0.33521488308906555, -0.3263618052005768, -0.3175087571144104, -0.308655709028244, -0.29980266094207764, -0.29094958305358887, -0.2820965349674225, -0.2732434868812561, -0.2643904387950897, -0.25553736090660095, -0.24668431282043457, -0.237831249833107, -0.22897818684577942, -0.22012513875961304, -0.21127207577228546, -0.20241902768611908, -0.1935659646987915, -0.18471291661262512, -0.17585985362529755, -0.16700679063796997, -0.1581537276506424, -0.149300679564476, -0.14044761657714844, -0.13159456849098206, -0.12274150550365448, -0.1138884499669075, -0.10503539443016052, -0.09618234634399414, -0.08732929080724716, -0.07847623527050018, -0.06962317228317261, -0.06077012047171593, -0.05191706493496895, -0.04306400567293167, -0.03421095013618469, -0.02535790205001831, -0.016504846513271332, -0.007651789113879204, 0.0012012682855129242, 0.010054323822259903, 0.01890737935900688, 0.02776043862104416, 0.03661349415779114, 0.04546655714511871, 0.05431961268186569, 0.06317266821861267, 0.07202573120594025, 0.08087877929210663, 0.0897318422794342, 0.09858489781618118, 0.10743795335292816, 0.11629100888967514, 0.12514406442642212, 0.1339971274137497, 0.14285017549991608, 0.15170323848724365, 0.16055628657341003, 0.1694093495607376, 0.17826241254806519, 0.18711546063423157]}, "gradients/encoder_fc.0.weight": {"_type": "histogram", "values": [1.0, 1.0, 0.0, 2.0, 0.0, 1.0, 2.0, 1.0, 0.0, 0.0, 3.0, 3.0, 2.0, 3.0, 2.0, 0.0, 3.0, 4.0, 12.0, 10.0, 8.0, 16.0, 11.0, 18.0, 15.0, 19.0, 24.0, 29.0, 33.0, 51.0, 73.0, 111.0, 126.0, 167.0, 251.0, 370.0, 582.0, 1007.0, 1692.0, 3867.0, 1577908.0, 12342.0, 3513.0, 1407.0, 652.0, 404.0, 236.0, 155.0, 128.0, 89.0, 76.0, 44.0, 48.0, 32.0, 22.0, 20.0, 15.0, 5.0, 7.0, 4.0, 1.0, 1.0, 1.0, 2.0], "bins": [-0.4474499523639679, -0.43650034070014954, -0.4255507290363312, -0.4146011173725128, -0.40365147590637207, -0.3927018642425537, -0.38175225257873535, -0.370802640914917, -0.35985302925109863, -0.3489034175872803, -0.3379538059234619, -0.32700419425964355, -0.3160545825958252, -0.30510494112968445, -0.2941553294658661, -0.28320571780204773, -0.27225610613822937, -0.261306494474411, -0.25035688281059265, -0.2394072562456131, -0.22845764458179474, -0.21750803291797638, -0.20655840635299683, -0.19560879468917847, -0.1846591830253601, -0.17370957136154175, -0.1627599596977234, -0.15181033313274384, -0.14086072146892548, -0.12991110980510712, -0.11896149069070816, -0.1080118715763092, -0.09706228971481323, -0.08611267805099487, -0.07516305893659592, -0.06421343982219696, -0.0532638281583786, -0.04231421276926994, -0.031364597380161285, -0.02041497826576233, -0.00946536660194397, 0.0014842487871646881, 0.012433864176273346, 0.023383479565382004, 0.03433309495449066, 0.04528271034359932, 0.05623232573270798, 0.06718194484710693, 0.07813155651092529, 0.08908116817474365, 0.10003078728914261, 0.11098040640354156, 0.12193001806735992, 0.13287962973117828, 0.14382925629615784, 0.1547788679599762, 0.16572847962379456, 0.17667809128761292, 0.18762770295143127, 0.19857732951641083, 0.2095269411802292, 0.22047655284404755, 0.2314261794090271, 0.24237579107284546, 0.2533254027366638]}, "gradients/conv.4.bias": {"_type": "histogram", "values": [1.0, 0.0, 0.0, 0.0, 0.0, 0.0, 0.0, 0.0, 0.0, 0.0, 0.0, 0.0, 0.0, 0.0, 0.0, 0.0, 0.0, 0.0, 0.0, 0.0, 0.0, 1.0, 0.0, 0.0, 0.0, 0.0, 0.0, 0.0, 0.0, 0.0, 0.0, 0.0, 0.0, 1.0, 0.0, 0.0, 0.0, 0.0, 0.0, 0.0, 1.0, 0.0, 0.0, 0.0, 1.0, 0.0, 0.0, 0.0, 0.0, 0.0, 1.0, 0.0, 0.0, 1.0, 0.0, 54.0, 0.0, 1.0, 0.0, 0.0, 0.0, 1.0, 0.0, 1.0], "bins": [-1.2473245859146118, -1.224881887435913, -1.202439308166504, -1.1799966096878052, -1.157554030418396, -1.1351113319396973, -1.112668752670288, -1.0902260541915894, -1.0677833557128906, -1.045340657234192, -1.0228980779647827, -1.000455379486084, -0.9780128002166748, -0.9555701017379761, -0.9331274628639221, -0.9106848239898682, -0.888242244720459, -0.865799605846405, -0.8433569669723511, -0.8209143280982971, -0.7984716892242432, -0.7760289907455444, -0.7535863518714905, -0.7311437129974365, -0.7087010741233826, -0.6862584352493286, -0.6638157963752747, -0.6413731575012207, -0.618930459022522, -0.596487820148468, -0.5740451812744141, -0.5516025424003601, -0.5291598439216614, -0.5067172050476074, -0.48427456617355347, -0.4618318974971771, -0.43938925862312317, -0.4169466197490692, -0.39450395107269287, -0.3720613121986389, -0.34961867332458496, -0.327176034450531, -0.30473339557647705, -0.2822907269001007, -0.25984808802604675, -0.2374054491519928, -0.21496279537677765, -0.1925201416015625, -0.17007750272750854, -0.1476348638534546, -0.12519221007823944, -0.10274956375360489, -0.08030691742897034, -0.057864271104335785, -0.03542162477970123, -0.012978971004486084, 0.009463667869567871, 0.03190631419420242, 0.054348960518836975, 0.07679160684347153, 0.09923425316810608, 0.12167689949274063, 0.14411954581737518, 0.16656219959259033, 0.1890048384666443]}, "gradients/conv.4.weight": {"_type": "histogram", "values": [1.0, 0.0, 0.0, 1.0, 0.0, 1.0, 1.0, 2.0, 2.0, 1.0, 2.0, 2.0, 4.0, 4.0, 2.0, 4.0, 4.0, 6.0, 8.0, 4.0, 10.0, 13.0, 21.0, 26.0, 28.0, 22.0, 34.0, 31.0, 33.0, 46.0, 54.0, 48.0, 81.0, 72.0, 93.0, 108.0, 109.0, 120.0, 35374.0, 161.0, 100.0, 58.0, 38.0, 31.0, 20.0, 19.0, 16.0, 7.0, 6.0, 7.0, 5.0, 4.0, 2.0, 2.0, 2.0, 4.0, 4.0, 1.0, 1.0, 0.0, 0.0, 0.0, 3.0, 1.0], "bins": [-1.1376113891601562, -1.108075499534607, -1.0785397291183472, -1.0490038394927979, -1.0194679498672485, -0.989932119846344, -0.9603962898254395, -0.9308604001998901, -0.9013245701789856, -0.871788740158081, -0.8422528505325317, -0.8127170205116272, -0.7831811904907227, -0.7536453008651733, -0.7241094708442688, -0.6945736408233643, -0.6650377511978149, -0.6355019211769104, -0.6059660315513611, -0.5764302015304565, -0.5468943119049072, -0.5173584818840027, -0.48782265186309814, -0.4582867920398712, -0.4287509322166443, -0.39921507239341736, -0.36967921257019043, -0.3401433825492859, -0.31060752272605896, -0.28107166290283203, -0.2515358328819275, -0.22199997305870056, -0.1924641728401184, -0.16292831301689148, -0.13339246809482574, -0.10385661572217941, -0.07432076334953308, -0.04478490352630615, -0.015249058604240417, 0.014286786317825317, 0.043822646141052246, 0.07335849851369858, 0.10289435088634491, 0.13243019580841064, 0.16196605563163757, 0.1915019154548645, 0.22103776037693024, 0.25057360529899597, 0.2801094651222229, 0.30964532494544983, 0.33918118476867676, 0.3687170147895813, 0.3982528746128082, 0.42778873443603516, 0.4573245644569397, 0.4868604242801666, 0.5163962841033936, 0.5459321141242981, 0.5754680037498474, 0.605003833770752, 0.6345397233963013, 0.6640755534172058, 0.6936113834381104, 0.7231472730636597, 0.7526831030845642]}, "gradients/conv.2.bias": {"_type": "histogram", "values": [1.0, 0.0, 0.0, 0.0, 0.0, 0.0, 0.0, 0.0, 0.0, 1.0, 0.0, 0.0, 0.0, 0.0, 1.0, 0.0, 0.0, 1.0, 1.0, 1.0, 0.0, 0.0, 0.0, 0.0, 0.0, 0.0, 0.0, 0.0, 2.0, 0.0, 0.0, 0.0, 1.0, 44.0, 2.0, 0.0, 1.0, 0.0, 0.0, 0.0, 0.0, 0.0, 0.0, 1.0, 2.0, 0.0, 1.0, 2.0, 0.0, 0.0, 0.0, 0.0, 1.0, 0.0, 0.0, 0.0, 0.0, 0.0, 0.0, 0.0, 0.0, 0.0, 0.0, 1.0], "bins": [-0.19510221481323242, -0.18934494256973267, -0.1835876852273941, -0.17783041298389435, -0.1720731556415558, -0.16631588339805603, -0.16055861115455627, -0.15480133891105652, -0.14904408156871796, -0.1432868093252182, -0.13752955198287964, -0.13177227973937988, -0.12601500749588013, -0.12025775015354156, -0.11450047791004181, -0.10874321311712265, -0.10298594832420349, -0.09722868353128433, -0.09147141873836517, -0.08571414649486542, -0.07995688170194626, -0.0741996169090271, -0.06844234466552734, -0.06268507987260818, -0.056927815079689026, -0.05117055028676987, -0.04541328176856041, -0.03965601325035095, -0.03389874845743179, -0.028141481801867485, -0.022384215146303177, -0.01662694662809372, -0.010869666934013367, -0.0051124002784490585, 0.0006448663771152496, 0.006402133032679558, 0.012159399688243866, 0.017916666343808174, 0.023673932999372482, 0.02943120151758194, 0.0351884663105011, 0.04094573110342026, 0.046702999621629715, 0.05246026813983917, 0.05821753293275833, 0.06397479772567749, 0.06973206996917725, 0.0754893347620964, 0.08124659955501556, 0.08700386434793472, 0.09276112914085388, 0.09851840138435364, 0.1042756661772728, 0.11003293097019196, 0.11579020321369171, 0.12154746800661087, 0.12730473279953003, 0.13306200504302979, 0.13881926238536835, 0.1445765346288681, 0.15033379197120667, 0.15609106421470642, 0.16184833645820618, 0.16760560870170593, 0.1733628660440445]}, "gradients/conv.2.weight": {"_type": "histogram", "values": [2.0, 1.0, 1.0, 0.0, 0.0, 0.0, 0.0, 0.0, 1.0, 1.0, 2.0, 0.0, 1.0, 1.0, 3.0, 6.0, 6.0, 6.0, 13.0, 8.0, 12.0, 18.0, 24.0, 19.0, 40.0, 52.0, 64.0, 103.0, 158.0, 210.0, 357.0, 30305.0, 305.0, 309.0, 211.0, 163.0, 98.0, 70.0, 36.0, 33.0, 32.0, 16.0, 20.0, 11.0, 13.0, 9.0, 6.0, 6.0, 2.0, 2.0, 3.0, 2.0, 0.0, 2.0, 1.0, 0.0, 0.0, 1.0, 0.0, 2.0, 0.0, 0.0, 0.0, 1.0], "bins": [-1.1357613801956177, -1.1001886129379272, -1.0646158456802368, -1.029043197631836, -0.9934704303741455, -0.9578976631164551, -0.9223248958587646, -0.8867521286010742, -0.8511794209480286, -0.8156066536903381, -0.7800339460372925, -0.744461178779602, -0.7088884115219116, -0.673315703868866, -0.6377429366111755, -0.6021702289581299, -0.5665974617004395, -0.531024694442749, -0.49545198678970337, -0.45987921953201294, -0.4243064820766449, -0.38873374462127686, -0.3531609773635864, -0.3175882399082184, -0.28201550245285034, -0.2464427649974823, -0.21087001264095306, -0.17529726028442383, -0.1397245228290558, -0.10415178537368774, -0.06857903301715851, -0.03300628066062927, 0.0025664567947387695, 0.03813920170068741, 0.07371194660663605, 0.10928469151258469, 0.14485743641853333, 0.18043017387390137, 0.2160029262304306, 0.25157567858695984, 0.2871484160423279, 0.3227211534976959, 0.35829389095306396, 0.3938666582107544, 0.42943939566612244, 0.4650121331214905, 0.5005849003791809, 0.5361576080322266, 0.571730375289917, 0.6073031425476074, 0.6428758502006531, 0.6784486174583435, 0.7140213251113892, 0.7495940923690796, 0.78516685962677, 0.8207396268844604, 0.8563123345375061, 0.8918851017951965, 0.9274578094482422, 0.9630305767059326, 0.998603343963623, 1.0341761112213135, 1.0697487592697144, 1.1053215265274048, 1.1408942937850952]}, "gradients/conv.0.bias": {"_type": "histogram", "values": [1.0, 0.0, 0.0, 0.0, 0.0, 0.0, 0.0, 0.0, 0.0, 0.0, 0.0, 0.0, 0.0, 0.0, 0.0, 0.0, 0.0, 0.0, 1.0, 0.0, 0.0, 1.0, 0.0, 0.0, 0.0, 0.0, 0.0, 0.0, 1.0, 0.0, 0.0, 25.0, 0.0, 0.0, 0.0, 0.0, 0.0, 0.0, 0.0, 0.0, 1.0, 0.0, 0.0, 0.0, 0.0, 0.0, 0.0, 0.0, 0.0, 0.0, 0.0, 0.0, 0.0, 0.0, 0.0, 0.0, 0.0, 1.0, 0.0, 0.0, 0.0, 0.0, 0.0, 1.0], "bins": [-0.07794742286205292, -0.07543806731700897, -0.07292871177196503, -0.07041935622692108, -0.06791000068187714, -0.0654006376862526, -0.06289128214120865, -0.0603819265961647, -0.05787257105112076, -0.05536321550607681, -0.05285385996103287, -0.050344500690698624, -0.04783514514565468, -0.04532578960061073, -0.04281643033027649, -0.040307074785232544, -0.0377977192401886, -0.03528836369514465, -0.03277900815010071, -0.030269648879766464, -0.02776029333472252, -0.025250937789678574, -0.02274158038198948, -0.020232222974300385, -0.01772286742925644, -0.01521351095288992, -0.0127041544765234, -0.01019479800015688, -0.0076854415237903595, -0.00517608504742384, -0.0026667285710573196, -0.0001573711633682251, 0.002351991832256317, 0.004861348308622837, 0.007370704784989357, 0.009880061261355877, 0.012389417737722397, 0.014898774214088917, 0.017408130690455437, 0.01991748809814453, 0.022426843643188477, 0.024936199188232422, 0.027445556595921516, 0.02995491400361061, 0.032464269548654556, 0.0349736250936985, 0.037482984364032745, 0.03999233990907669, 0.042501695454120636, 0.04501105099916458, 0.04752040654420853, 0.05002976581454277, 0.052539121359586716, 0.05504847690463066, 0.057557836174964905, 0.06006719172000885, 0.0625765472650528, 0.06508590281009674, 0.06759525835514069, 0.07010461390018463, 0.07261396944522858, 0.07512333244085312, 0.07763268798589706, 0.08014204353094101, 0.08265139907598495]}, "gradients/conv.0.weight": {"_type": "histogram", "values": [1.0, 2.0, 0.0, 1.0, 2.0, 1.0, 3.0, 3.0, 6.0, 5.0, 8.0, 8.0, 22.0, 10.0, 14.0, 21.0, 30.0, 28.0, 46.0, 53.0, 65.0, 53.0, 80.0, 83.0, 68.0, 82.0, 95.0, 97.0, 6005.0, 134.0, 126.0, 124.0, 119.0, 123.0, 91.0, 110.0, 71.0, 69.0, 62.0, 42.0, 45.0, 28.0, 23.0, 11.0, 24.0, 17.0, 23.0, 7.0, 5.0, 6.0, 6.0, 5.0, 4.0, 5.0, 3.0, 5.0, 5.0, 2.0, 1.0, 0.0, 0.0, 1.0, 2.0, 1.0], "bins": [-0.22270387411117554, -0.2149766981601715, -0.20724953711032867, -0.19952236115932465, -0.19179518520832062, -0.18406802415847778, -0.17634084820747375, -0.16861367225646973, -0.1608864963054657, -0.15315932035446167, -0.14543215930461884, -0.1377049833536148, -0.12997780740261078, -0.12225063890218735, -0.11452347040176392, -0.10679629445075989, -0.09906913340091705, -0.09134196490049362, -0.0836147889494896, -0.07588762044906616, -0.06816044449806213, -0.0604332759976387, -0.05270610749721527, -0.04497893527150154, -0.03725177049636841, -0.02952459827065468, -0.021797427907586098, -0.014070257544517517, -0.006343085318803787, 0.0013840869069099426, 0.009111255407333374, 0.016838427633047104, 0.02456560730934143, 0.03229277953505516, 0.04001995176076889, 0.04774712026119232, 0.05547429248690605, 0.06320146471261978, 0.07092863321304321, 0.07865580916404724, 0.08638298511505127, 0.0941101536154747, 0.10183732956647873, 0.10956449806690216, 0.11729167401790619, 0.12501883506774902, 0.13274601101875305, 0.14047318696975708, 0.14820034801959991, 0.15592752397060394, 0.16365468502044678, 0.1713818609714508, 0.17910903692245483, 0.18683621287345886, 0.1945633739233017, 0.20229054987430573, 0.21001771092414856, 0.2177448868751526, 0.22547204792499542, 0.23319922387599945, 0.24092639982700348, 0.2486535608768463, 0.25638073682785034, 0.26410791277885437, 0.2718350887298584]}, "_wandb": {"runtime": 5290}}