{"reward": -20.0, "episode": 17, "_runtime": 819, "_timestamp": 1645127291, "_step": 17, "gradients/projection.2.bias": {"_type": "histogram", "values": [1.0, 0.0, 0.0, 0.0, 0.0, 0.0, 0.0, 1.0, 1.0, 0.0, 0.0, 1.0, 0.0, 0.0, 0.0, 0.0, 0.0, 0.0, 0.0, 2.0, 1.0, 1.0, 0.0, 2.0, 0.0, 0.0, 0.0, 0.0, 1.0, 0.0, 0.0, 1.0, 1.0, 0.0, 0.0, 0.0, 0.0, 1.0, 0.0, 1.0, 1.0, 0.0, 0.0, 0.0, 1.0, 1.0, 0.0, 2.0, 0.0, 2.0, 0.0, 1.0, 0.0, 3.0, 0.0, 2.0, 0.0, 1.0, 0.0, 2.0, 0.0, 0.0, 0.0, 1.0], "bins": [0.13676857948303223, 0.16478969156742096, 0.1928108185529709, 0.22083193063735962, 0.24885305762290955, 0.2768741846084595, 0.304895281791687, 0.33291640877723694, 0.36093753576278687, 0.3889586627483368, 0.41697975993156433, 0.44500088691711426, 0.4730220139026642, 0.5010431408882141, 0.5290642380714417, 0.557085394859314, 0.5851064920425415, 0.613127589225769, 0.6411487460136414, 0.6691698431968689, 0.6971909403800964, 0.7252120971679688, 0.7532331943511963, 0.7812542915344238, 0.8092753887176514, 0.8372964859008789, 0.8653176426887512, 0.8933387398719788, 0.9213598370552063, 0.9493809938430786, 0.9774020910263062, 1.0054231882095337, 1.0334444046020508, 1.0614655017852783, 1.0894865989685059, 1.1175076961517334, 1.1455289125442505, 1.173550009727478, 1.2015711069107056, 1.229592204093933, 1.2576133012771606, 1.2856343984603882, 1.3136554956436157, 1.3416767120361328, 1.3696978092193604, 1.397718906402588, 1.4257400035858154, 1.453761100769043, 1.4817821979522705, 1.509803295135498, 1.5378243923187256, 1.5658454895019531, 1.5938667058944702, 1.6218878030776978, 1.6499089002609253, 1.6779299974441528, 1.70595121383667, 1.7339723110198975, 1.761993408203125, 1.7900145053863525, 1.8180357217788696, 1.8460568189620972, 1.8740779161453247, 1.9020990133285522, 1.9301201105117798]}, "gradients/projection.2.weight": {"_type": "histogram", "values": [3.0, 0.0, 3.0, 1.0, 2.0, 1.0, 2.0, 2.0, 0.0, 2.0, 1.0, 4.0, 7.0, 8.0, 15.0, 22.0, 41.0, 54.0, 103.0, 133.0, 203.0, 1707.0, 315.0, 234.0, 221.0, 249.0, 207.0, 142.0, 104.0, 80.0, 66.0, 43.0, 34.0, 15.0, 9.0, 4.0, 5.0, 5.0, 11.0, 6.0, 3.0, 2.0, 3.0, 4.0, 1.0, 1.0, 1.0, 4.0, 0.0, 0.0, 2.0, 3.0, 1.0, 0.0, 0.0, 1.0, 1.0, 4.0, 0.0, 0.0, 0.0, 0.0, 0.0, 1.0], "bins": [-0.8874772787094116, -0.8466344475746155, -0.8057916164398193, -0.7649487853050232, -0.724105954170227, -0.6832630634307861, -0.64242023229599, -0.6015774011611938, -0.5607345700263977, -0.5198917388916016, -0.4790489077568054, -0.4382060468196869, -0.39736321568489075, -0.3565203845500946, -0.3156775236129761, -0.27483469247817993, -0.2339918613433838, -0.19314903020858765, -0.1523061841726303, -0.11146334558725357, -0.07062050700187683, -0.02977767586708069, 0.011065170168876648, 0.051908016204833984, 0.09275084733963013, 0.13359367847442627, 0.1744365245103836, 0.21527937054634094, 0.2561222016811371, 0.2969650328159332, 0.33780789375305176, 0.3786507248878479, 0.4194936752319336, 0.46033650636672974, 0.5011793375015259, 0.542022168636322, 0.5828649997711182, 0.6237078905105591, 0.6645507216453552, 0.7053935527801514, 0.7462363839149475, 0.7870792150497437, 0.8279220461845398, 0.8687648773193359, 0.9096077680587769, 0.9504505395889282, 0.9912934303283691, 1.0321362018585205, 1.0729790925979614, 1.1138219833374023, 1.1546647548675537, 1.1955076456069946, 1.236350417137146, 1.277193307876587, 1.3180360794067383, 1.3588789701461792, 1.3997218608856201, 1.440564751625061, 1.4814075231552124, 1.5222504138946533, 1.5630931854248047, 1.6039360761642456, 1.644778847694397, 1.685621738433838, 1.7264645099639893]}, "gradients/projection.0.bias": {"_type": "histogram", "values": [1.0, 0.0, 0.0, 0.0, 0.0, 0.0, 4.0, 1.0, 0.0, 0.0, 2.0, 3.0, 1.0, 0.0, 0.0, 2.0, 0.0, 2.0, 0.0, 1.0, 1.0, 0.0, 0.0, 1.0, 1.0, 0.0, 0.0, 1.0, 2.0, 6.0, 43.0, 6.0, 5.0, 0.0, 6.0, 6.0, 5.0, 3.0, 1.0, 2.0, 4.0, 3.0, 0.0, 1.0, 4.0, 0.0, 2.0, 0.0, 2.0, 1.0, 1.0, 0.0, 0.0, 0.0, 0.0, 0.0, 0.0, 1.0, 0.0, 1.0, 1.0, 0.0, 0.0, 1.0], "bins": [-1.7198418378829956, -1.6632344722747803, -1.606627106666565, -1.5500197410583496, -1.4934122562408447, -1.4368048906326294, -1.380197525024414, -1.3235901594161987, -1.2669827938079834, -1.210375428199768, -1.1537680625915527, -1.0971605777740479, -1.0405532121658325, -0.9839458465576172, -0.9273384809494019, -0.8707311153411865, -0.8141236305236816, -0.7575162649154663, -0.7009088397026062, -0.6443014740943909, -0.5876940488815308, -0.5310866832733154, -0.4744793176651001, -0.4178719222545624, -0.36126458644866943, -0.3046571910381317, -0.2480498105287552, -0.19144243001937866, -0.13483503460884094, -0.07822763919830322, -0.02162027359008789, 0.03498712182044983, 0.09159469604492188, 0.1482020914554596, 0.20480947196483612, 0.26141685247421265, 0.31802424788475037, 0.3746316432952881, 0.4312390089035034, 0.48784640431404114, 0.5444538593292236, 0.601061224937439, 0.6576686501502991, 0.7142760157585144, 0.7708834409713745, 0.8274908065795898, 0.8840981721878052, 0.9407055377960205, 0.9973129034042358, 1.0539202690124512, 1.1105276346206665, 1.1671350002288818, 1.2237424850463867, 1.280349850654602, 1.3369572162628174, 1.3935645818710327, 1.450171947479248, 1.5067793130874634, 1.5633866786956787, 1.6199941635131836, 1.676601529121399, 1.7332088947296143, 1.7898162603378296, 1.846423625946045, 1.9030311107635498]}, "gradients/projection.0.weight": {"_type": "histogram", "values": [1.0, 0.0, 0.0, 0.0, 1.0, 2.0, 2.0, 3.0, 1.0, 1.0, 6.0, 4.0, 8.0, 12.0, 18.0, 23.0, 21.0, 39.0, 52.0, 90.0, 140.0, 232.0, 306.0, 446.0, 601.0, 712.0, 990.0, 1500.0, 3489.0, 47094.0, 3042.0, 2132.0, 1532.0, 1053.0, 654.0, 418.0, 284.0, 195.0, 125.0, 90.0, 56.0, 52.0, 26.0, 25.0, 15.0, 8.0, 6.0, 4.0, 7.0, 3.0, 4.0, 2.0, 1.0, 1.0, 2.0, 1.0, 1.0, 1.0, 0.0, 1.0, 0.0, 0.0, 0.0, 1.0], "bins": [-0.5024182200431824, -0.4851667284965515, -0.46791520714759827, -0.450663685798645, -0.43341219425201416, -0.4161607027053833, -0.39890918135643005, -0.3816576600074768, -0.36440616846084595, -0.3471546769142151, -0.32990315556526184, -0.3126516342163086, -0.29540014266967773, -0.2781486511230469, -0.26089712977409363, -0.24364562332630157, -0.22639411687850952, -0.20914261043071747, -0.19189110398292542, -0.17463959753513336, -0.1573880910873413, -0.14013658463954926, -0.1228850781917572, -0.10563357174396515, -0.0883820652961731, -0.07113055884838104, -0.05387905240058899, -0.036627545952796936, -0.019376039505004883, -0.0021245330572128296, 0.015126973390579224, 0.03237847983837128, 0.049629926681518555, 0.06688143312931061, 0.08413293957710266, 0.10138444602489471, 0.11863595247268677, 0.13588745892047882, 0.15313896536827087, 0.17039047181606293, 0.18764197826385498, 0.20489348471164703, 0.2221449911594391, 0.23939649760723114, 0.2566480040550232, 0.27389949560165405, 0.2911510169506073, 0.30840253829956055, 0.3256540298461914, 0.34290552139282227, 0.3601570427417755, 0.37740856409072876, 0.3946600556373596, 0.4119115471839905, 0.4291630685329437, 0.446414589881897, 0.46366608142852783, 0.4809175729751587, 0.49816909432411194, 0.5154206156730652, 0.532672107219696, 0.5499235987663269, 0.5671751499176025, 0.5844266414642334, 0.6016781330108643]}, "gradients/policy_fc.bias": {"_type": "histogram", "values": [1.0, 1.0, 0.0, 0.0, 0.0, 0.0, 0.0, 0.0, 0.0, 0.0, 0.0, 0.0, 0.0, 0.0, 0.0, 1.0, 0.0, 1.0, 0.0, 0.0, 0.0, 0.0, 0.0, 0.0, 0.0, 0.0, 0.0, 0.0, 0.0, 0.0, 0.0, 0.0, 0.0, 0.0, 0.0, 0.0, 0.0, 0.0, 0.0, 0.0, 1.0, 0.0, 0.0, 0.0, 0.0, 0.0, 0.0, 0.0, 0.0, 0.0, 0.0, 0.0, 0.0, 0.0, 0.0, 0.0, 0.0, 0.0, 0.0, 0.0, 0.0, 0.0, 0.0, 1.0], "bins": [-0.0061271958984434605, -0.006018794607371092, -0.005910393316298723, -0.005801992025226355, -0.005693590268492699, -0.00558518897742033, -0.005476787686347961, -0.005368386395275593, -0.005259985104203224, -0.0051515838131308556, -0.005043182522058487, -0.004934781230986118, -0.004826379474252462, -0.004717978183180094, -0.004609576892107725, -0.0045011756010353565, -0.004392774309962988, -0.004284373018890619, -0.004175971727818251, -0.004067570436745882, -0.003959168680012226, -0.0038507673889398575, -0.003742366097867489, -0.0036339648067951202, -0.003525563282892108, -0.0034171619918197393, -0.003308760467916727, -0.0032003591768443584, -0.00309195788577199, -0.002983556594699621, -0.002875155070796609, -0.0027667537797242403, -0.0026583524886518717, -0.002549951197579503, -0.002441549673676491, -0.002333148382604122, -0.0022247470915317535, -0.002116345800459385, -0.0020079442765563726, -0.001899542985484004, -0.0017911416944116354, -0.001682740286923945, -0.0015743389958515763, -0.0014659375883638859, -0.0013575362972915173, -0.0012491348898038268, -0.0011407334823161364, -0.0010323321912437677, -0.0009239307837560773, -0.0008155294344760478, -0.0007071280851960182, -0.0005987266777083278, -0.0004903253866359591, -0.0003819239791482687, -0.00027352262986823916, -0.00016512128058820963, -5.6719931308180094e-05, 5.1681425247807056e-05, 0.0001600827818037942, 0.00026848414563573897, 0.0003768854949157685, 0.0004852868732996285, 0.000593688222579658, 0.0007020895718596876, 0.0008104909211397171]}, "gradients/policy_fc.weight": {"_type": "histogram", "values": [2.0, 0.0, 0.0, 0.0, 0.0, 0.0, 0.0, 0.0, 0.0, 1.0, 0.0, 0.0, 0.0, 0.0, 2.0, 1.0, 0.0, 0.0, 1.0, 0.0, 1.0, 3.0, 3.0, 2.0, 1.0, 2.0, 1.0, 6.0, 4.0, 3.0, 5.0, 6.0, 7.0, 13.0, 6.0, 9.0, 15.0, 16.0, 16.0, 25.0, 30.0, 36.0, 53.0, 55.0, 79.0, 74.0, 88.0, 117.0, 116.0, 139.0, 139.0, 142.0, 163.0, 1550.0, 26.0, 10.0, 30.0, 23.0, 21.0, 16.0, 8.0, 4.0, 1.0, 1.0], "bins": [-0.0018653863808140159, -0.001830420340411365, -0.0017954543000087142, -0.0017604882596060634, -0.0017255222192034125, -0.0016905562952160835, -0.0016555902548134327, -0.0016206242144107819, -0.001585658174008131, -0.0015506921336054802, -0.0015157260932028294, -0.0014807600528001785, -0.0014457940123975277, -0.0014108279719948769, -0.001375861931592226, -0.001340896007604897, -0.0013059298507869244, -0.0012709638103842735, -0.0012359977699816227, -0.0012010317295789719, -0.001166065689176321, -0.0011310996487736702, -0.0010961336083710194, -0.0010611676843836904, -0.0010262016439810395, -0.0009912356035783887, -0.0009562695631757379, -0.000921303522773087, -0.0008863375405780971, -0.0008513715001754463, -0.0008164054597727954, -0.0007814394775778055, -0.0007464734371751547, -0.0007115073967725039, -0.000676541356369853, -0.0006415753159672022, -0.0006066093337722123, -0.0005716432933695614, -0.0005366772529669106, -0.0005017112707719207, -0.00046674523036926985, -0.000431779189966619, -0.00039681317866779864, -0.0003618471382651478, -0.00032688112696632743, -0.0002919150865636766, -0.00025694904616102576, -0.00022198303486220539, -0.0001870169653557241, -0.0001520509395049885, -0.00011708490637829527, -8.211887325160205e-05, -4.715284740086645e-05, -1.2186821550130844e-05, 2.277921885251999e-05, 5.7745230151340365e-05, 9.27112705539912e-05, 0.0001276772964047268, 0.0001626433222554624, 0.00019760936265811324, 0.00023257538850884885, 0.00026754141435958445, 0.0003025074547622353, 0.00033747346606105566, 0.0003724395064637065]}, "gradients/encoder_fc.0.bias": {"_type": "histogram", "values": [1.0, 0.0, 0.0, 1.0, 1.0, 0.0, 0.0, 0.0, 1.0, 0.0, 2.0, 1.0, 3.0, 0.0, 2.0, 2.0, 1.0, 3.0, 8.0, 11.0, 6.0, 14.0, 15.0, 23.0, 14.0, 34.0, 27.0, 219.0, 19.0, 20.0, 10.0, 13.0, 11.0, 6.0, 7.0, 1.0, 7.0, 1.0, 5.0, 0.0, 4.0, 4.0, 1.0, 3.0, 1.0, 2.0, 0.0, 3.0, 1.0, 0.0, 0.0, 2.0, 0.0, 0.0, 0.0, 1.0, 0.0, 0.0, 0.0, 0.0, 0.0, 0.0, 0.0, 1.0], "bins": [-1.0730952024459839, -1.0341992378234863, -0.9953033328056335, -0.9564074277877808, -0.9175114631652832, -0.8786155581474304, -0.8397196531295776, -0.8008236885070801, -0.7619277834892273, -0.7230318784713745, -0.684135913848877, -0.6452400088310242, -0.6063441038131714, -0.5674481391906738, -0.528552234172821, -0.4896562993526459, -0.4507603645324707, -0.41186442971229553, -0.37296849489212036, -0.3340725898742676, -0.2951766550540924, -0.25628072023391724, -0.21738480031490326, -0.17848888039588928, -0.1395929455757141, -0.10069701820611954, -0.06180109083652496, -0.02290516346693039, 0.015990763902664185, 0.054886698722839355, 0.09378261864185333, 0.1326785385608673, 0.17157447338104248, 0.21047040820121765, 0.24936632812023163, 0.2882622480392456, 0.3271581828594208, 0.36605411767959595, 0.40495002269744873, 0.4438459575176239, 0.4827418923377991, 0.5216377973556519, 0.5605337619781494, 0.5994296669960022, 0.638325572013855, 0.6772215366363525, 0.7161174416542053, 0.7550133466720581, 0.7939093112945557, 0.8328052163124084, 0.871701180934906, 0.9105970859527588, 0.9494930505752563, 0.9883889555931091, 1.027284860610962, 1.0661808252334595, 1.105076789855957, 1.1439727544784546, 1.1828685998916626, 1.2217645645141602, 1.2606605291366577, 1.2995564937591553, 1.3384523391723633, 1.3773483037948608, 1.4162441492080688]}, "gradients/encoder_fc.0.weight": {"_type": "histogram", "values": [1.0, 0.0, 1.0, 0.0, 3.0, 2.0, 0.0, 7.0, 0.0, 8.0, 3.0, 9.0, 11.0, 9.0, 17.0, 34.0, 51.0, 68.0, 78.0, 123.0, 206.0, 341.0, 597.0, 1056.0, 2282.0, 5925.0, 32524.0, 1541954.0, 10927.0, 4284.0, 2158.0, 1197.0, 693.0, 398.0, 215.0, 156.0, 85.0, 66.0, 45.0, 21.0, 19.0, 18.0, 9.0, 8.0, 3.0, 3.0, 2.0, 1.0, 1.0, 1.0, 2.0, 1.0, 1.0, 2.0, 0.0, 1.0, 0.0, 1.0, 0.0, 0.0, 2.0, 0.0, 0.0, 2.0], "bins": [-0.32734397053718567, -0.3153180778026581, -0.3032921850681305, -0.2912662923336029, -0.2792404294013977, -0.2672145366668701, -0.25518864393234253, -0.24316275119781494, -0.23113685846328735, -0.21911096572875977, -0.20708507299423218, -0.19505919516086578, -0.1830333024263382, -0.1710074096918106, -0.1589815318584442, -0.14695563912391663, -0.13492974638938904, -0.12290385365486145, -0.11087796837091446, -0.09885208308696747, -0.08682619035243988, -0.07480029761791229, -0.0627744123339653, -0.05074852705001831, -0.03872263431549072, -0.026696745306253433, -0.014670856297016144, -0.0026449672877788544, 0.009380921721458435, 0.021406810730695724, 0.033432699739933014, 0.045458585023880005, 0.05748450756072998, 0.06951040029525757, 0.08153628557920456, 0.09356217086315155, 0.10558806359767914, 0.11761395633220673, 0.12963983416557312, 0.1416657269001007, 0.1536916196346283, 0.16571751236915588, 0.17774340510368347, 0.18976928293704987, 0.20179517567157745, 0.21382106840610504, 0.22584694623947144, 0.23787283897399902, 0.2498987317085266, 0.2619246244430542, 0.2739505171775818, 0.2859764099121094, 0.29800230264663696, 0.31002816557884216, 0.32205405831336975, 0.33407995104789734, 0.3461058437824249, 0.3581317365169525, 0.3701576292514801, 0.3821835219860077, 0.3942093849182129, 0.4062352776527405, 0.41826117038726807, 0.43028706312179565, 0.44231295585632324]}, "gradients/conv.4.bias": {"_type": "histogram", "values": [1.0, 0.0, 0.0, 0.0, 0.0, 1.0, 0.0, 0.0, 0.0, 0.0, 0.0, 0.0, 0.0, 0.0, 0.0, 1.0, 0.0, 0.0, 0.0, 0.0, 0.0, 1.0, 0.0, 0.0, 0.0, 0.0, 0.0, 0.0, 0.0, 0.0, 0.0, 0.0, 0.0, 0.0, 0.0, 0.0, 0.0, 0.0, 0.0, 2.0, 2.0, 1.0, 0.0, 0.0, 0.0, 0.0, 0.0, 0.0, 0.0, 1.0, 0.0, 1.0, 2.0, 2.0, 43.0, 0.0, 3.0, 0.0, 0.0, 0.0, 1.0, 1.0, 0.0, 1.0], "bins": [-2.8081483840942383, -2.7562437057495117, -2.7043392658233643, -2.6524345874786377, -2.600529909133911, -2.5486254692077637, -2.496720790863037, -2.4448161125183105, -2.392911672592163, -2.3410069942474365, -2.289102554321289, -2.2371978759765625, -2.185293197631836, -2.1333887577056885, -2.081484079360962, -2.0295794010162354, -1.9776748418807983, -1.9257702827453613, -1.8738656044006348, -1.8219610452651978, -1.7700564861297607, -1.7181518077850342, -1.6662472486495972, -1.6143426895141602, -1.5624380111694336, -1.5105334520339966, -1.45862877368927, -1.406724214553833, -1.354819655418396, -1.302915096282959, -1.2510104179382324, -1.1991058588027954, -1.1472011804580688, -1.0952966213226318, -1.0433919429779053, -0.9914873838424683, -0.9395828247070312, -0.8876782059669495, -0.8357735872268677, -0.7838690280914307, -0.7319644689559937, -0.6800598502159119, -0.6281552910804749, -0.5762506723403931, -0.524346113204956, -0.47244149446487427, -0.4205368757247925, -0.3686322867870331, -0.3167276382446289, -0.2648230493068695, -0.2129184454679489, -0.16101384162902832, -0.10910925269126892, -0.05720466375350952, -0.005300045013427734, 0.046604543924331665, 0.09850913286209106, 0.15041372179985046, 0.20231832563877106, 0.25422292947769165, 0.30612751841545105, 0.35803210735321045, 0.40993672609329224, 0.46184131503105164, 0.513745903968811]}, "gradients/conv.4.weight": {"_type": "histogram", "values": [1.0, 0.0, 1.0, 1.0, 0.0, 0.0, 0.0, 2.0, 2.0, 5.0, 3.0, 0.0, 1.0, 3.0, 2.0, 8.0, 3.0, 2.0, 8.0, 13.0, 7.0, 18.0, 18.0, 18.0, 28.0, 26.0, 39.0, 43.0, 45.0, 62.0, 83.0, 95.0, 108.0, 159.0, 189.0, 211.0, 276.0, 337.0, 462.0, 767.0, 31512.0, 1077.0, 523.0, 244.0, 163.0, 91.0, 70.0, 37.0, 17.0, 13.0, 10.0, 18.0, 6.0, 5.0, 6.0, 7.0, 3.0, 7.0, 0.0, 2.0, 1.0, 1.0, 2.0, 3.0], "bins": [-0.8190051317214966, -0.7988694310188293, -0.7787337899208069, -0.7585980892181396, -0.7384624481201172, -0.71832674741745, -0.6981910467147827, -0.6780554056167603, -0.657919704914093, -0.6377840042114258, -0.6176483631134033, -0.5975126624107361, -0.5773770213127136, -0.5572413206100464, -0.5371056795120239, -0.5169699788093567, -0.49683430790901184, -0.476698637008667, -0.45656296610832214, -0.4364272952079773, -0.41629159450531006, -0.3961559236049652, -0.37602025270462036, -0.3558845520019531, -0.33574891090393066, -0.3156132400035858, -0.29547756910324097, -0.27534186840057373, -0.2552061975002289, -0.23507052659988403, -0.21493485569953918, -0.19479916989803314, -0.1746634840965271, -0.15452781319618225, -0.1343921273946762, -0.11425645649433136, -0.09412077814340591, -0.07398509979248047, -0.05384942889213562, -0.03371374309062958, -0.013578057289123535, 0.006557619199156761, 0.026693295687437057, 0.046828970313072205, 0.06696464866399765, 0.0871003270149231, 0.10723599791526794, 0.127371683716774, 0.14750733971595764, 0.1676430106163025, 0.18777869641780853, 0.20791436731815338, 0.22805005311965942, 0.24818572402000427, 0.2683213949203491, 0.28845709562301636, 0.3085927367210388, 0.32872840762138367, 0.3488640785217285, 0.36899977922439575, 0.3891354501247406, 0.40927112102508545, 0.4294067919254303, 0.44954246282577515, 0.4696781635284424]}, "gradients/conv.2.bias": {"_type": "histogram", "values": [1.0, 0.0, 0.0, 0.0, 1.0, 1.0, 0.0, 1.0, 0.0, 2.0, 0.0, 1.0, 0.0, 0.0, 1.0, 2.0, 2.0, 2.0, 1.0, 0.0, 2.0, 1.0, 1.0, 0.0, 24.0, 3.0, 1.0, 1.0, 4.0, 1.0, 1.0, 0.0, 1.0, 0.0, 3.0, 1.0, 1.0, 0.0, 0.0, 1.0, 0.0, 0.0, 0.0, 1.0, 0.0, 0.0, 0.0, 0.0, 1.0, 0.0, 0.0, 0.0, 0.0, 0.0, 0.0, 0.0, 0.0, 0.0, 0.0, 0.0, 0.0, 0.0, 0.0, 1.0], "bins": [-0.8136690855026245, -0.7808377146720886, -0.7480063438415527, -0.7151749134063721, -0.6823435425758362, -0.6495121717453003, -0.6166807413101196, -0.5838493704795837, -0.5510179996490479, -0.518186628818512, -0.4853552281856537, -0.4525238275527954, -0.4196924567222595, -0.38686108589172363, -0.35402968525886536, -0.3211982846260071, -0.2883669137954712, -0.2555355429649353, -0.22270414233207703, -0.18987275660037994, -0.15704137086868286, -0.12420998513698578, -0.0913785994052887, -0.058547213673591614, -0.02571582794189453, 0.007115557789802551, 0.039946943521499634, 0.07277832925319672, 0.1056097149848938, 0.13844110071659088, 0.17127248644828796, 0.20410387217998505, 0.23693537712097168, 0.26976674795150757, 0.30259814858436584, 0.3354295492172241, 0.36826092004776, 0.4010922908782959, 0.4339236915111542, 0.46675509214401245, 0.49958646297454834, 0.5324178338050842, 0.5652492046356201, 0.5980806350708008, 0.6309120059013367, 0.6637433767318726, 0.6965748071670532, 0.7294061779975891, 0.762237548828125, 0.7950689196586609, 0.8279002904891968, 0.8607317209243774, 0.8935630917549133, 0.9263944625854492, 0.9592258930206299, 0.9920572638511658, 1.0248886346817017, 1.0577200651168823, 1.0905513763427734, 1.123382806777954, 1.1562142372131348, 1.1890455484390259, 1.2218769788742065, 1.2547082901000977, 1.2875397205352783]}, "gradients/conv.2.weight": {"_type": "histogram", "values": [1.0, 0.0, 0.0, 1.0, 1.0, 0.0, 1.0, 2.0, 2.0, 4.0, 4.0, 6.0, 8.0, 14.0, 5.0, 8.0, 17.0, 20.0, 25.0, 23.0, 36.0, 47.0, 46.0, 64.0, 96.0, 119.0, 176.0, 229.0, 362.0, 426.0, 595.0, 764.0, 966.0, 25305.0, 1020.0, 718.0, 400.0, 311.0, 213.0, 145.0, 132.0, 104.0, 84.0, 53.0, 36.0, 39.0, 29.0, 24.0, 23.0, 25.0, 16.0, 8.0, 7.0, 5.0, 1.0, 0.0, 0.0, 1.0, 0.0, 0.0, 0.0, 0.0, 0.0, 1.0], "bins": [-0.5615872144699097, -0.5446711778640747, -0.5277551412582397, -0.5108391046524048, -0.4939230680465698, -0.47700703144073486, -0.4600909650325775, -0.44317492842674255, -0.4262588918209076, -0.40934285521507263, -0.39242681860923767, -0.3755107820034027, -0.35859471559524536, -0.3416786789894104, -0.32476264238357544, -0.3078466057777405, -0.2909305691719055, -0.27401453256607056, -0.2570984959602356, -0.24018244445323944, -0.22326640784740448, -0.20635037124156952, -0.18943431973457336, -0.1725182831287384, -0.15560224652290344, -0.13868620991706848, -0.12177016586065292, -0.10485412180423737, -0.0879380851984024, -0.07102204859256744, -0.054106004536151886, -0.03718996047973633, -0.020273864269256592, -0.0033578239381313324, 0.013558216392993927, 0.030474256724119186, 0.047390297055244446, 0.0643063336610794, 0.08122237771749496, 0.09813842177391052, 0.11505445837974548, 0.13197049498558044, 0.1488865315914154, 0.16580258309841156, 0.18271861970424652, 0.19963465631008148, 0.21655070781707764, 0.2334667444229126, 0.25038278102874756, 0.2672988176345825, 0.2842148542404175, 0.30113089084625244, 0.3180469274520874, 0.33496296405792236, 0.3518790304660797, 0.3687950670719147, 0.38571110367774963, 0.4026271402835846, 0.41954317688941956, 0.4364592134952545, 0.45337527990341187, 0.4702913165092468, 0.4872073531150818, 0.5041233897209167, 0.5210394263267517]}, "gradients/conv.0.bias": {"_type": "histogram", "values": [1.0, 0.0, 1.0, 0.0, 0.0, 0.0, 0.0, 0.0, 0.0, 0.0, 0.0, 0.0, 0.0, 0.0, 0.0, 0.0, 0.0, 0.0, 0.0, 0.0, 0.0, 0.0, 0.0, 0.0, 0.0, 0.0, 1.0, 0.0, 0.0, 0.0, 0.0, 19.0, 2.0, 0.0, 0.0, 0.0, 2.0, 1.0, 0.0, 0.0, 0.0, 1.0, 0.0, 1.0, 0.0, 1.0, 1.0, 0.0, 0.0, 0.0, 0.0, 0.0, 0.0, 0.0, 0.0, 0.0, 0.0, 0.0, 0.0, 0.0, 0.0, 0.0, 0.0, 1.0], "bins": [-0.51937335729599, -0.5029189586639404, -0.48646456003189087, -0.4700101613998413, -0.45355576276779175, -0.4371013641357422, -0.420646995306015, -0.40419259667396545, -0.3877381980419159, -0.37128379940986633, -0.3548294007778168, -0.3383750021457672, -0.32192063331604004, -0.3054662346839905, -0.2890118360519409, -0.27255743741989136, -0.2561030387878418, -0.23964864015579224, -0.22319424152374268, -0.2067398577928543, -0.19028545916080475, -0.1738310605287552, -0.15737667679786682, -0.14092227816581726, -0.1244678795337677, -0.10801348090171814, -0.09155908972024918, -0.07510469853878021, -0.05865029990673065, -0.04219590127468109, -0.025741510093212128, -0.009287118911743164, 0.0071672797203063965, 0.02362167462706566, 0.04007606953382492, 0.05653046444058418, 0.07298485934734344, 0.089439257979393, 0.10589364916086197, 0.12234804034233093, 0.1388024389743805, 0.15525683760643005, 0.17171123623847961, 0.18816561996936798, 0.20462001860141754, 0.2210744172334671, 0.23752880096435547, 0.25398319959640503, 0.2704375982284546, 0.28689199686050415, 0.3033463954925537, 0.31980079412460327, 0.33625519275665283, 0.3527095913887024, 0.36916396021842957, 0.3856183588504791, 0.4020727574825287, 0.41852715611457825, 0.4349815547466278, 0.45143595337867737, 0.46789032220840454, 0.4843447208404541, 0.5007991194725037, 0.5172535181045532, 0.5337079167366028]}, "gradients/conv.0.weight": {"_type": "histogram", "values": [5.0, 5.0, 6.0, 5.0, 12.0, 6.0, 9.0, 23.0, 28.0, 35.0, 28.0, 41.0, 45.0, 46.0, 49.0, 28.0, 32.0, 10.0, 14.0, 24.0, 12.0, 28.0, 31.0, 35.0, 20.0, 20.0, 29.0, 34.0, 26.0, 47.0, 67.0, 105.0, 100.0, 100.0, 119.0, 4782.0, 175.0, 179.0, 187.0, 124.0, 94.0, 123.0, 104.0, 132.0, 134.0, 113.0, 72.0, 85.0, 83.0, 73.0, 69.0, 74.0, 91.0, 73.0, 60.0, 50.0, 31.0, 20.0, 15.0, 8.0, 11.0, 2.0, 3.0, 1.0], "bins": [-0.36279356479644775, -0.352592408657074, -0.3423912227153778, -0.33219006657600403, -0.32198888063430786, -0.3117877244949341, -0.3015865683555603, -0.2913854122161865, -0.28118422627449036, -0.2709830701351166, -0.2607818841934204, -0.25058072805404663, -0.24037955701351166, -0.23017838597297668, -0.2199772298336029, -0.20977605879306793, -0.19957488775253296, -0.18937371671199799, -0.179172545671463, -0.16897138953208923, -0.15877021849155426, -0.1485690474510193, -0.1383678913116455, -0.12816672027111053, -0.11796554923057556, -0.10776437819004059, -0.09756321460008621, -0.08736205101013184, -0.07716087996959686, -0.06695970892906189, -0.05675854533910751, -0.04655738174915314, -0.03635624051094055, -0.026155073195695877, -0.015953905880451202, -0.005752738565206528, 0.004448428750038147, 0.014649596065282822, 0.024850763380527496, 0.03505192697048187, 0.045253098011016846, 0.05545426532626152, 0.0656554326415062, 0.07585659623146057, 0.08605776727199554, 0.09625893831253052, 0.1064601019024849, 0.11666126549243927, 0.12686243653297424, 0.13706360757350922, 0.1472647786140442, 0.15746593475341797, 0.16766710579395294, 0.17786827683448792, 0.1880694329738617, 0.19827060401439667, 0.20847177505493164, 0.2186729460954666, 0.2288741171360016, 0.23907527327537537, 0.24927644431591034, 0.2594776153564453, 0.2696787714958191, 0.27987992763519287, 0.29008111357688904]}, "_wandb": {"runtime": 817}}