{"reward": -21.0, "episode": 113, "_runtime": 6044, "_timestamp": 1645126070, "_step": 113, "gradients/policy_fc.bias": {"_type": "histogram", "values": [1.0, 0.0, 0.0, 0.0, 0.0, 0.0, 0.0, 1.0, 0.0, 1.0, 1.0, 0.0, 0.0, 1.0, 0.0, 0.0, 0.0, 0.0, 0.0, 0.0, 0.0, 0.0, 0.0, 0.0, 0.0, 0.0, 0.0, 0.0, 0.0, 0.0, 0.0, 0.0, 0.0, 0.0, 0.0, 0.0, 0.0, 0.0, 0.0, 0.0, 0.0, 0.0, 0.0, 0.0, 0.0, 0.0, 0.0, 0.0, 0.0, 0.0, 0.0, 0.0, 0.0, 0.0, 0.0, 0.0, 0.0, 0.0, 0.0, 0.0, 0.0, 0.0, 0.0, 1.0], "bins": [-0.00986893754452467, -0.008925779722630978, -0.00798262283205986, -0.007039465010166168, -0.0060963076539337635, -0.005153150297701359, -0.004209992475807667, -0.003266835119575262, -0.0023236777633428574, -0.0013805202906951308, -0.0004373628180474043, 0.0005057947710156441, 0.0014489521272480488, 0.0023921094834804535, 0.0033352673053741455, 0.00427842466160655, 0.005221582017838955, 0.00616473937407136, 0.007107896730303764, 0.008051054552197456, 0.008994212374091148, 0.009937369264662266, 0.010880527086555958, 0.011823683977127075, 0.012766842730343342, 0.013710000552237034, 0.014653157442808151, 0.015596315264701843, 0.016539473086595535, 0.017482630908489227, 0.01842578873038292, 0.019368944689631462, 0.020312100648880005, 0.021255258470773697, 0.02219841629266739, 0.02314157411456108, 0.024084730073809624, 0.025027887895703316, 0.025971045717597008, 0.0269142035394907, 0.027857359498739243, 0.028800517320632935, 0.029743675142526627, 0.03068683296442032, 0.03162999078631401, 0.0325731486082077, 0.033516302704811096, 0.03445946052670479, 0.03540261834859848, 0.03634577617049217, 0.037288933992385864, 0.038232091814279556, 0.03917524963617325, 0.04011840373277664, 0.04106156527996063, 0.042004719376564026, 0.042947880923748016, 0.04389103874564171, 0.0448341965675354, 0.04577735438942909, 0.046720512211322784, 0.04766366630792618, 0.04860682785511017, 0.04954998195171356, 0.050493139773607254]}, "gradients/policy_fc.weight": {"_type": "histogram", "values": [2.0, 0.0, 1.0, 0.0, 1.0, 2.0, 1.0, 5.0, 3.0, 5.0, 8.0, 3012.0, 12.0, 5.0, 3.0, 4.0, 1.0, 0.0, 0.0, 0.0, 0.0, 0.0, 1.0, 0.0, 0.0, 0.0, 0.0, 0.0, 0.0, 1.0, 0.0, 1.0, 0.0, 0.0, 1.0, 0.0, 0.0, 0.0, 0.0, 0.0, 0.0, 0.0, 1.0, 0.0, 0.0, 0.0, 0.0, 0.0, 0.0, 0.0, 0.0, 0.0, 0.0, 0.0, 0.0, 0.0, 0.0, 1.0, 0.0, 0.0, 0.0, 0.0, 0.0, 1.0], "bins": [-0.024087244644761086, -0.02199414372444153, -0.01990104280412197, -0.017807941883802414, -0.015714839100837708, -0.013621739111840725, -0.011528637260198593, -0.009435536339879036, -0.007342435419559479, -0.005249334499239922, -0.003156233113259077, -0.0010631317272782326, 0.0010299691930413246, 0.003123070113360882, 0.005216171965003014, 0.007309272885322571, 0.009402373805642128, 0.011495474725961685, 0.013588575646281242, 0.0156816765666008, 0.017774779349565506, 0.019867878407239914, 0.02196098119020462, 0.024054082110524178, 0.026147184893488884, 0.02824028581380844, 0.030333386734128, 0.032426487654447556, 0.03451959043741226, 0.03661268949508667, 0.038705792278051376, 0.04079889506101608, 0.04289199411869049, 0.0449850969016552, 0.047078195959329605, 0.04917129874229431, 0.05126439779996872, 0.053357500582933426, 0.05545060336589813, 0.05754370242357254, 0.05963680148124695, 0.061729904264211655, 0.06382300704717636, 0.06591610610485077, 0.06800920516252518, 0.07010230422019958, 0.07219541072845459, 0.074288509786129, 0.0763816088438034, 0.07847470790147781, 0.08056781440973282, 0.08266091346740723, 0.08475401252508163, 0.08684711158275604, 0.08894021809101105, 0.09103331714868546, 0.09312642365694046, 0.09521952271461487, 0.09731262922286987, 0.09940572828054428, 0.10149882733821869, 0.1035919263958931, 0.1056850329041481, 0.10777813196182251, 0.10987123101949692]}, "gradients/encoder_fc.0.bias": {"_type": "histogram", "values": [1.0, 0.0, 1.0, 0.0, 0.0, 1.0, 0.0, 0.0, 0.0, 0.0, 0.0, 1.0, 0.0, 1.0, 0.0, 0.0, 0.0, 0.0, 1.0, 0.0, 1.0, 1.0, 0.0, 0.0, 0.0, 1.0, 0.0, 498.0, 0.0, 1.0, 0.0, 0.0, 0.0, 0.0, 0.0, 0.0, 1.0, 0.0, 0.0, 0.0, 0.0, 0.0, 0.0, 1.0, 0.0, 0.0, 0.0, 0.0, 0.0, 0.0, 0.0, 1.0, 0.0, 0.0, 0.0, 0.0, 0.0, 0.0, 0.0, 0.0, 0.0, 0.0, 0.0, 1.0], "bins": [-0.05980732664465904, -0.057620350271463394, -0.055433373898267746, -0.0532463975250721, -0.05105942115187645, -0.0488724447786808, -0.04668547213077545, -0.0444984957575798, -0.042311519384384155, -0.04012454301118851, -0.03793756663799286, -0.03575059026479721, -0.03356361389160156, -0.031376637518405914, -0.029189663007855415, -0.027002686634659767, -0.02481570839881897, -0.02262873202562332, -0.020441755652427673, -0.018254779279232025, -0.016067802906036377, -0.013880827464163303, -0.01169385202229023, -0.009506875649094582, -0.007319901138544083, -0.0051329247653484344, -0.0029459488578140736, -0.0007589729502797127, 0.0014280034229159355, 0.0036149797961115837, 0.005801955237984657, 0.007988931611180305, 0.010175913572311401, 0.01236288994550705, 0.014549866318702698, 0.016736842691898346, 0.018923819065093994, 0.021110795438289642, 0.02329776994884014, 0.02548474632203579, 0.027671724557876587, 0.029858700931072235, 0.03204567730426788, 0.03423265367746353, 0.03641963005065918, 0.03860660642385483, 0.040793582797050476, 0.042980559170246124, 0.045167531818151474, 0.04735450819134712, 0.04954148456454277, 0.05172846093773842, 0.05391543731093407, 0.056102413684129715, 0.058289386332035065, 0.06047636270523071, 0.06266333907842636, 0.06485031545162201, 0.06703729182481766, 0.0692242681980133, 0.07141124457120895, 0.0735982209444046, 0.07578519731760025, 0.0779721736907959, 0.08015915006399155]}, "gradients/encoder_fc.0.weight": {"_type": "histogram", "values": [1.0, 1.0, 0.0, 1.0, 0.0, 1.0, 9.0, 12.0, 6.0, 20.0, 22.0, 21.0, 45.0, 37.0, 65.0, 87.0, 93.0, 128.0, 170.0, 239.0, 333.0, 430.0, 565.0, 819.0, 1115.0, 1736.0, 1591037.0, 2490.0, 1752.0, 1098.0, 840.0, 602.0, 437.0, 341.0, 217.0, 221.0, 137.0, 117.0, 95.0, 70.0, 50.0, 42.0, 21.0, 30.0, 19.0, 11.0, 8.0, 7.0, 9.0, 4.0, 4.0, 3.0, 5.0, 1.0, 0.0, 2.0, 1.0, 0.0, 3.0, 1.0, 0.0, 0.0, 0.0, 1.0], "bins": [-0.15683935582637787, -0.15100055932998657, -0.14516177773475647, -0.13932298123836517, -0.13348418474197388, -0.12764538824558258, -0.12180659919977188, -0.11596781015396118, -0.11012901365756989, -0.10429021716117859, -0.09845142811536789, -0.09261263906955719, -0.0867738425731659, -0.0809350460767746, -0.0750962570309639, -0.0692574679851532, -0.0634186714887619, -0.057579878717660904, -0.051741085946559906, -0.04590229317545891, -0.04006350040435791, -0.03422470763325691, -0.028385914862155914, -0.022547122091054916, -0.01670832931995392, -0.01086953654885292, -0.005030743777751923, 0.0008080489933490753, 0.006646841764450073, 0.012485634535551071, 0.01832442730665207, 0.024163220077753067, 0.03000199794769287, 0.03584079071879387, 0.04167958348989487, 0.047518376260995865, 0.05335716903209686, 0.05919596180319786, 0.06503475457429886, 0.07087354362010956, 0.07671234011650085, 0.08255113661289215, 0.08838992565870285, 0.09422871470451355, 0.10006751120090485, 0.10590630769729614, 0.11174509674310684, 0.11758388578891754, 0.12342268228530884, 0.12926147878170013, 0.13510027527809143, 0.14093905687332153, 0.14677785336971283, 0.15261664986610413, 0.15845543146133423, 0.16429422795772552, 0.17013302445411682, 0.17597182095050812, 0.18181061744689941, 0.18764939904212952, 0.1934881955385208, 0.1993269920349121, 0.2051657736301422, 0.2110045701265335, 0.2168433666229248]}, "gradients/conv.4.bias": {"_type": "histogram", "values": [2.0, 1.0, 0.0, 0.0, 1.0, 0.0, 0.0, 0.0, 1.0, 0.0, 0.0, 0.0, 0.0, 0.0, 0.0, 0.0, 0.0, 0.0, 0.0, 0.0, 2.0, 1.0, 0.0, 0.0, 0.0, 0.0, 0.0, 0.0, 1.0, 1.0, 0.0, 4.0, 1.0, 1.0, 0.0, 2.0, 3.0, 29.0, 0.0, 1.0, 0.0, 2.0, 1.0, 0.0, 1.0, 1.0, 1.0, 0.0, 0.0, 1.0, 1.0, 0.0, 0.0, 0.0, 0.0, 2.0, 0.0, 0.0, 0.0, 0.0, 0.0, 0.0, 1.0, 2.0], "bins": [-0.19367602467536926, -0.18850204348564148, -0.1833280771970749, -0.1781540960073471, -0.17298012971878052, -0.16780614852905273, -0.16263218224048615, -0.15745820105075836, -0.15228423476219177, -0.147110253572464, -0.1419362872838974, -0.13676230609416962, -0.13158833980560303, -0.12641435861587524, -0.12124038487672806, -0.11606641113758087, -0.11089242994785309, -0.1057184562087059, -0.10054448246955872, -0.09537050873041153, -0.09019653499126434, -0.08502255380153656, -0.07984858006238937, -0.07467460632324219, -0.069500632584095, -0.06432665884494781, -0.05915268510580063, -0.053978707641363144, -0.04880473390221596, -0.04363076016306877, -0.03845678269863129, -0.0332828089594841, -0.028108835220336914, -0.022934861481189728, -0.017760885879397392, -0.012586911208927631, -0.0074129365384578705, -0.002238962799310684, 0.0029350128024816513, 0.008108988404273987, 0.013282962143421173, 0.01845693588256836, 0.023630911484360695, 0.02880488708615303, 0.03397886082530022, 0.0391528345644474, 0.04432681202888489, 0.049500785768032074, 0.05467475950717926, 0.05984873324632645, 0.06502270698547363, 0.07019668072462082, 0.075370654463768, 0.08054463565349579, 0.08571860939264297, 0.09089258313179016, 0.09606655687093735, 0.10124053061008453, 0.10641450434923172, 0.1115884780883789, 0.11676245927810669, 0.12193642556667328, 0.12711040675640106, 0.13228437304496765, 0.13745835423469543]}, "gradients/conv.4.weight": {"_type": "histogram", "values": [1.0, 2.0, 0.0, 1.0, 0.0, 2.0, 1.0, 0.0, 0.0, 0.0, 3.0, 1.0, 1.0, 3.0, 0.0, 3.0, 2.0, 10.0, 6.0, 7.0, 11.0, 16.0, 7.0, 20.0, 21.0, 33.0, 32.0, 44.0, 48.0, 69.0, 103.0, 156.0, 188.0, 262.0, 359.0, 571.0, 1017.0, 31836.0, 577.0, 381.0, 290.0, 208.0, 162.0, 120.0, 70.0, 46.0, 48.0, 33.0, 24.0, 10.0, 15.0, 8.0, 10.0, 7.0, 5.0, 3.0, 3.0, 1.0, 1.0, 1.0, 0.0, 1.0, 3.0, 1.0], "bins": [-0.2485211342573166, -0.24183204770088196, -0.23514296114444733, -0.2284538745880127, -0.22176478803157806, -0.21507570147514343, -0.2083866149187088, -0.20169752836227417, -0.19500844180583954, -0.1883193552494049, -0.18163026869297028, -0.17494118213653564, -0.168252095580101, -0.16156300902366638, -0.15487392246723175, -0.14818483591079712, -0.1414957493543625, -0.13480666279792786, -0.12811757624149323, -0.1214284896850586, -0.11473940312862396, -0.10805031657218933, -0.1013612300157547, -0.09467214345932007, -0.08798305690288544, -0.0812939703464508, -0.07460488379001617, -0.06791579723358154, -0.06122671067714691, -0.05453762412071228, -0.04784853756427765, -0.04115945100784302, -0.03447037935256958, -0.02778129279613495, -0.021092206239700317, -0.014403119683265686, -0.007714033126831055, -0.0010249465703964233, 0.005664139986038208, 0.01235322654247284, 0.01904231309890747, 0.025731399655342102, 0.03242048621177673, 0.039109572768211365, 0.045798659324645996, 0.05248774588108063, 0.05917683243751526, 0.06586591899394989, 0.07255500555038452, 0.07924409210681915, 0.08593317866325378, 0.09262226521968842, 0.09931135177612305, 0.10600043833255768, 0.11268952488899231, 0.11937861144542694, 0.12606769800186157, 0.1327567845582962, 0.13944587111473083, 0.14613495767116547, 0.1528240442276001, 0.15951313078403473, 0.16620221734046936, 0.172891303896904, 0.17958039045333862]}, "gradients/conv.2.bias": {"_type": "histogram", "values": [1.0, 0.0, 0.0, 0.0, 0.0, 0.0, 0.0, 0.0, 0.0, 0.0, 0.0, 0.0, 1.0, 0.0, 0.0, 0.0, 0.0, 1.0, 0.0, 1.0, 0.0, 1.0, 0.0, 0.0, 0.0, 2.0, 1.0, 1.0, 2.0, 45.0, 0.0, 0.0, 0.0, 1.0, 1.0, 1.0, 1.0, 1.0, 0.0, 1.0, 0.0, 0.0, 1.0, 0.0, 0.0, 0.0, 0.0, 0.0, 0.0, 0.0, 0.0, 0.0, 0.0, 0.0, 0.0, 0.0, 0.0, 0.0, 0.0, 0.0, 0.0, 0.0, 0.0, 1.0], "bins": [-0.1672751009464264, -0.1616930216550827, -0.15611092746257782, -0.15052884817123413, -0.14494676887989044, -0.13936468958854675, -0.13378259539604187, -0.12820051610469818, -0.1226184293627739, -0.11703634262084961, -0.11145426332950592, -0.10587217658758163, -0.10029008984565735, -0.09470801055431366, -0.08912592381238937, -0.08354383707046509, -0.0779617577791214, -0.07237967103719711, -0.06679759174585342, -0.06121550500392914, -0.05563342198729515, -0.05005133897066116, -0.04446925222873688, -0.03888716921210289, -0.033305078744888306, -0.027722995728254318, -0.02214091084897518, -0.016558825969696045, -0.010976742953062057, -0.00539465993642807, 0.00018742680549621582, 0.005769509822130203, 0.0113515704870224, 0.016933653503656387, 0.022515738382935524, 0.02809782326221466, 0.03367990627884865, 0.039261989295482635, 0.04484407603740692, 0.05042615905404091, 0.0560082346200943, 0.06159031763672829, 0.06717240065336227, 0.07275448739528656, 0.07833656668663025, 0.08391865342855453, 0.08950074017047882, 0.09508281946182251, 0.10066491365432739, 0.10624700039625168, 0.11182907968759537, 0.11741116642951965, 0.12299324572086334, 0.12857532501220703, 0.13415741920471191, 0.1397394984960556, 0.1453215777873993, 0.15090365707874298, 0.15648575127124786, 0.16206783056259155, 0.16764990985393524, 0.17323198914527893, 0.1788140833377838, 0.1843961626291275, 0.18997825682163239]}, "gradients/conv.2.weight": {"_type": "histogram", "values": [1.0, 2.0, 1.0, 0.0, 4.0, 1.0, 0.0, 0.0, 3.0, 0.0, 0.0, 0.0, 3.0, 3.0, 4.0, 10.0, 7.0, 2.0, 9.0, 3.0, 12.0, 19.0, 22.0, 21.0, 32.0, 48.0, 48.0, 64.0, 105.0, 122.0, 170.0, 246.0, 319.0, 440.0, 496.0, 28932.0, 464.0, 316.0, 188.0, 164.0, 118.0, 87.0, 59.0, 48.0, 29.0, 23.0, 20.0, 10.0, 11.0, 11.0, 9.0, 11.0, 14.0, 7.0, 6.0, 5.0, 3.0, 7.0, 4.0, 1.0, 2.0, 0.0, 1.0, 1.0], "bins": [-0.18216170370578766, -0.177016943693161, -0.17187218368053436, -0.16672740876674652, -0.16158264875411987, -0.15643788874149323, -0.15129312872886658, -0.14614836871623993, -0.14100360870361328, -0.13585884869098663, -0.13071408867835999, -0.12556931376457214, -0.1204245537519455, -0.11527979373931885, -0.1101350337266922, -0.10499027371406555, -0.09984549880027771, -0.09470073878765106, -0.08955597132444382, -0.08441121131181717, -0.07926644384860992, -0.07412168383598328, -0.06897692382335663, -0.06383216381072998, -0.058687396347522736, -0.05354263260960579, -0.04839786887168884, -0.043253108859062195, -0.03810834512114525, -0.0329635813832283, -0.027818819507956505, -0.022674057632684708, -0.017529278993606567, -0.012384516187012196, -0.007239753380417824, -0.002094990573823452, 0.00304977223277092, 0.008194535970687866, 0.013339297845959663, 0.01848405972123146, 0.023628823459148407, 0.028773587197065353, 0.0339183509349823, 0.03906311094760895, 0.044207874685525894, 0.04935263842344284, 0.05449739843606949, 0.059642162173986435, 0.06478692591190338, 0.06993168592453003, 0.07507645338773727, 0.08022121340036392, 0.08536598086357117, 0.09051074087619781, 0.09565550088882446, 0.10080026090145111, 0.10594502836465836, 0.111089788377285, 0.11623455584049225, 0.1213793158531189, 0.12652407586574554, 0.1316688358783722, 0.13681361079216003, 0.14195837080478668, 0.14710313081741333]}, "gradients/conv.0.bias": {"_type": "histogram", "values": [2.0, 0.0, 0.0, 2.0, 0.0, 0.0, 0.0, 1.0, 0.0, 1.0, 0.0, 0.0, 0.0, 18.0, 0.0, 1.0, 1.0, 2.0, 0.0, 0.0, 0.0, 0.0, 0.0, 1.0, 0.0, 0.0, 0.0, 1.0, 0.0, 0.0, 0.0, 0.0, 0.0, 0.0, 0.0, 0.0, 0.0, 0.0, 0.0, 0.0, 0.0, 0.0, 0.0, 0.0, 0.0, 0.0, 0.0, 0.0, 0.0, 0.0, 0.0, 0.0, 1.0, 0.0, 0.0, 0.0, 0.0, 0.0, 0.0, 0.0, 0.0, 0.0, 0.0, 1.0], "bins": [-0.03849927708506584, -0.03562070429325104, -0.03274213522672653, -0.029863562434911728, -0.026984993368387222, -0.024106420576572418, -0.021227849647402763, -0.01834927871823311, -0.015470707789063454, -0.012592136859893799, -0.009713565930724144, -0.0068349940702319145, -0.00395642314106226, -0.0010778522118926048, 0.0018007196485996246, 0.0046792905777692795, 0.007557861506938934, 0.01043643243610859, 0.013315003365278244, 0.016193576157093048, 0.019072145223617554, 0.021950718015432358, 0.024829288944602013, 0.027707859873771667, 0.03058643266558647, 0.033465005457401276, 0.03634357452392578, 0.039222147315740585, 0.04210071638226509, 0.044979289174079895, 0.0478578582406044, 0.050736431032419205, 0.05361499637365341, 0.056493569165468216, 0.05937213823199272, 0.062250711023807526, 0.06512928009033203, 0.06800784915685654, 0.07088642567396164, 0.07376499474048615, 0.07664356380701065, 0.07952213287353516, 0.08240070939064026, 0.08527927845716476, 0.08815784752368927, 0.09103641659021378, 0.09391499310731888, 0.09679356217384338, 0.09967213869094849, 0.10255070775747299, 0.1054292842745781, 0.1083078533411026, 0.1111864224076271, 0.11406499147415161, 0.11694356799125671, 0.11982213705778122, 0.12270070612430573, 0.12557928264141083, 0.12845784425735474, 0.13133642077445984, 0.13421499729156494, 0.13709355890750885, 0.13997213542461395, 0.14285069704055786, 0.14572927355766296]}, "gradients/conv.0.weight": {"_type": "histogram", "values": [1.0, 1.0, 1.0, 1.0, 4.0, 7.0, 6.0, 11.0, 10.0, 28.0, 23.0, 39.0, 55.0, 79.0, 104.0, 126.0, 137.0, 152.0, 169.0, 200.0, 173.0, 201.0, 158.0, 151.0, 180.0, 4752.0, 175.0, 186.0, 123.0, 114.0, 77.0, 63.0, 54.0, 54.0, 25.0, 25.0, 15.0, 21.0, 16.0, 16.0, 25.0, 15.0, 30.0, 23.0, 32.0, 25.0, 20.0, 24.0, 33.0, 34.0, 29.0, 32.0, 24.0, 24.0, 24.0, 21.0, 11.0, 13.0, 9.0, 6.0, 2.0, 2.0, 0.0, 1.0], "bins": [-0.05382687598466873, -0.051691751927137375, -0.04955662786960602, -0.04742150381207466, -0.045286379754543304, -0.043151259422302246, -0.04101613536477089, -0.03888101130723953, -0.036745887249708176, -0.03461076319217682, -0.03247563913464546, -0.030340516939759254, -0.028205392882227898, -0.02607026882469654, -0.023935146629810333, -0.021800022572278976, -0.01966489851474762, -0.017529774457216263, -0.01539465133100748, -0.013259528204798698, -0.011124404147267342, -0.008989280089735985, -0.006854156963527203, -0.00471903383731842, -0.0025839097797870636, -0.0004487861879169941, 0.0016863374039530754, 0.003821460995823145, 0.005956584587693214, 0.008091708645224571, 0.010226831771433353, 0.012361954897642136, 0.014497071504592896, 0.016632195562124252, 0.01876731961965561, 0.020902441814541817, 0.023037565872073174, 0.02517268992960453, 0.027307812124490738, 0.029442936182022095, 0.03157806023955345, 0.03371318429708481, 0.035848308354616165, 0.03798343241214752, 0.04011855274438858, 0.042253680527210236, 0.044388800859451294, 0.04652392491698265, 0.04865904897451401, 0.050794173032045364, 0.05292929708957672, 0.05506442114710808, 0.057199545204639435, 0.05933466553688049, 0.06146978959441185, 0.0636049136519432, 0.06574003398418427, 0.06787515431642532, 0.07001028209924698, 0.07214540243148804, 0.07428053021430969, 0.07641565054655075, 0.0785507783293724, 0.08068589866161346, 0.08282102644443512]}, "_wandb": {"runtime": 6041}}