{"reward": 1.0, "episode": 1136, "_runtime": 6305, "_timestamp": 1645204153, "_step": 1136, "gradients/policy_fc.bias": {"_type": "histogram", "values": [1.0, 0.0, 0.0, 0.0, 0.0, 0.0, 0.0, 0.0, 0.0, 0.0, 0.0, 0.0, 0.0, 0.0, 0.0, 0.0, 0.0, 0.0, 0.0, 0.0, 0.0, 0.0, 0.0, 0.0, 0.0, 0.0, 0.0, 0.0, 0.0, 0.0, 0.0, 0.0, 0.0, 0.0, 0.0, 1.0, 0.0, 0.0, 0.0, 0.0, 0.0, 0.0, 0.0, 0.0, 0.0, 0.0, 0.0, 0.0, 0.0, 0.0, 0.0, 0.0, 0.0, 0.0, 1.0, 0.0, 0.0, 0.0, 0.0, 0.0, 0.0, 0.0, 0.0, 1.0], "bins": [-0.00959866400808096, -0.009383605793118477, -0.009168547578155994, -0.008953489363193512, -0.00873843114823103, -0.008523372933268547, -0.00830831564962864, -0.008093257434666157, -0.007878199219703674, -0.007663141004741192, -0.007448082789778709, -0.007233024574816227, -0.007017966825515032, -0.006802908610552549, -0.006587850395590067, -0.0063727921806275845, -0.006157733965665102, -0.0059426757507026196, -0.005727617535740137, -0.005512559786438942, -0.0052975015714764595, -0.005082443356513977, -0.004867385141551495, -0.004652326926589012, -0.00443726871162653, -0.004222210496664047, -0.004007152281701565, -0.003792094299569726, -0.003577036317437887, -0.0033619781024754047, -0.0031469198875129223, -0.00293186167255044, -0.0027168039232492447, -0.0025017457082867622, -0.0022866877261549234, -0.002071629511192441, -0.0018565714126452804, -0.0016415133140981197, -0.0014264550991356373, -0.0012113970005884767, -0.0009963391348719597, -0.0007812810363247991, -0.0005662228795699775, -0.000351164722815156, -0.00013610662426799536, 7.895147427916527e-05, 0.0002940096892416477, 0.0005090677877888083, 0.0007241261191666126, 0.0009391842177137733, 0.0011542423162609339, 0.0013693005312234163, 0.001584358629770577, 0.0017994167283177376, 0.00201447494328022, 0.0022295331582427025, 0.0024445911403745413, 0.0026596493553370237, 0.0028747073374688625, 0.003089765552431345, 0.0033048237673938274, 0.0035198817495256662, 0.0037349399644881487, 0.0039499979466199875, 0.00416505616158247]}, "gradients/policy_fc.weight": {"_type": "histogram", "values": [3.0, 1.0, 2.0, 0.0, 0.0, 2.0, 4.0, 0.0, 3.0, 2.0, 4.0, 1.0, 0.0, 4.0, 2.0, 1.0, 1.0, 1.0, 5.0, 2.0, 1.0, 2.0, 0.0, 0.0, 1.0, 0.0, 4.0, 0.0, 1.0, 1.0, 0.0, 1.0, 3.0, 8.0, 7.0, 16.0, 22.0, 38.0, 31.0, 25.0, 27.0, 26.0, 43.0, 77.0, 88.0, 182.0, 1102.0, 43.0, 26.0, 24.0, 24.0, 21.0, 15.0, 17.0, 23.0, 21.0, 17.0, 12.0, 18.0, 26.0, 8.0, 4.0, 2.0, 3.0], "bins": [-0.0030679486226290464, -0.0030012724455446005, -0.0029345962684601545, -0.0028679203242063522, -0.0028012441471219063, -0.0027345679700374603, -0.0026678917929530144, -0.0026012156158685684, -0.0025345394387841225, -0.0024678632616996765, -0.0024011870846152306, -0.0023345109075307846, -0.0022678349632769823, -0.0022011587861925364, -0.0021344826091080904, -0.0020678064320236444, -0.002001130487769842, -0.0019344543106853962, -0.001867778250016272, -0.0018011020729318261, -0.0017344258958473802, -0.001667749835178256, -0.00160107365809381, -0.0015343974810093641, -0.0014677213039249182, -0.0014010451268404722, -0.001334369066171348, -0.0012676928890869021, -0.0012010167120024562, -0.001134340651333332, -0.001067664474248886, -0.0010009882971644402, -0.0009343121200799942, -0.0008676360012032092, -0.0008009598241187632, -0.0007342837052419782, -0.0006676075281575322, -0.0006009314092807472, -0.0005342552904039621, -0.00046757914242334664, -0.00040090293623507023, -0.00033422678825445473, -0.00026755064027383924, -0.0002008745213970542, -0.0001341983734164387, -6.75222254358232e-05, -8.461065590381622e-07, 6.583004142157733e-05, 0.00013250613119453192, 0.00019918227917514741, 0.0002658584271557629, 0.00033253454603254795, 0.00039921069401316345, 0.00046588684199377894, 0.000532562960870564, 0.0005992391379550099, 0.000665915256831795, 0.00073259137570858, 0.000799267552793026, 0.000865943671669811, 0.000932619790546596, 0.000999295967631042, 0.0010659720283001661, 0.001132648205384612, 0.001199324382469058]}, "gradients/encoder.encoder_fc.0.bias": {"_type": "histogram", "values": [2.0, 0.0, 0.0, 0.0, 2.0, 0.0, 3.0, 1.0, 2.0, 3.0, 4.0, 2.0, 4.0, 5.0, 4.0, 2.0, 0.0, 2.0, 4.0, 4.0, 6.0, 1.0, 5.0, 12.0, 8.0, 12.0, 7.0, 11.0, 7.0, 7.0, 4.0, 6.0, 12.0, 11.0, 7.0, 13.0, 218.0, 10.0, 14.0, 13.0, 9.0, 11.0, 16.0, 10.0, 5.0, 6.0, 4.0, 1.0, 2.0, 5.0, 3.0, 0.0, 5.0, 2.0, 1.0, 1.0, 1.0, 1.0, 0.0, 0.0, 0.0, 0.0, 0.0, 1.0], "bins": [-0.0010921867797151208, -0.0010626019211485982, -0.0010330170625820756, -0.0010034320876002312, -0.0009738472290337086, -0.000944262370467186, -0.0009146775119006634, -0.0008850925951264799, -0.0008555076783522964, -0.0008259228197857738, -0.0007963379030115902, -0.0007667530444450676, -0.0007371681276708841, -0.0007075832691043615, -0.0006779984105378389, -0.0006484134937636554, -0.0006188286351971328, -0.0005892437766306102, -0.0005596588598564267, -0.0005300740012899041, -0.0005004890845157206, -0.000470904225949198, -0.00044131933827884495, -0.0004117344506084919, -0.0003821495920419693, -0.00035256470437161624, -0.0003229798167012632, -0.0002933949581347406, -0.0002638100413605571, -0.00023422516824211925, -0.00020464029512368143, -0.00017505540745332837, -0.00014547054888680577, -0.00011588566121645272, -8.630078082205728e-05, -5.6715900427661836e-05, -2.713101275730878e-05, 2.453874913044274e-06, 3.20387480314821e-05, 6.162363570183516e-05, 9.120855247601867e-05, 0.00012079344014637172, 0.00015037832781672478, 0.0001799632009351626, 0.00020954808860551566, 0.00023913297627586871, 0.00026871784939430654, 0.0002983027370646596, 0.0003278875956311822, 0.00035747248330153525, 0.0003870573709718883, 0.0004166422295384109, 0.0004462271463125944, 0.000475812004879117, 0.0005053968634456396, 0.0005349817802198231, 0.0005645666969940066, 0.0005941515555605292, 0.0006237364723347127, 0.0006533213309012353, 0.0006829062476754189, 0.0007124911062419415, 0.000742075964808464, 0.0007716608815826476, 0.0008012457401491702]}, "gradients/encoder.encoder_fc.0.weight": {"_type": "histogram", "values": [3.0, 1.0, 2.0, 4.0, 2.0, 4.0, 3.0, 4.0, 4.0, 3.0, 4.0, 9.0, 10.0, 11.0, 12.0, 32.0, 43.0, 86.0, 126.0, 186.0, 293.0, 509.0, 583.0, 656.0, 779.0, 1111.0, 1553.0, 2557.0, 3717.0, 5835.0, 10087.0, 21821.0, 67888.0, 1391926.0, 57728.0, 19243.0, 8786.0, 4450.0, 2281.0, 1283.0, 783.0, 429.0, 249.0, 160.0, 119.0, 78.0, 37.0, 29.0, 25.0, 20.0, 13.0, 13.0, 8.0, 6.0, 6.0, 2.0, 3.0, 3.0, 3.0, 2.0, 3.0, 1.0, 2.0, 3.0], "bins": [-0.00014396112237591296, -0.0001396661245962605, -0.00013537114136852324, -0.00013107614358887076, -0.0001267811458092183, -0.0001224861480295658, -0.00011819116480182856, -0.00011389616702217609, -0.00010960117651848122, -0.00010530618601478636, -0.00010101118823513389, -9.671619773143902e-05, -9.242120722774416e-05, -8.812620944809169e-05, -8.383121894439682e-05, -7.953622844070196e-05, -7.524123066104949e-05, -7.094624015735462e-05, -6.665124237770215e-05, -6.235625187400728e-05, -5.8061257732333615e-05, -5.3766263590659946e-05, -4.9471273086965084e-05, -4.5176278945291415e-05, -4.0881284803617746e-05, -3.6586290661944076e-05, -3.229129652027041e-05, -2.7996306016575545e-05, -2.3701311874901876e-05, -1.9406317733228207e-05, -1.5111325410543941e-05, -1.0816333087859675e-05, -6.521338946186006e-06, -2.2263457140070386e-06, 2.068647518171929e-06, 6.363640750350896e-06, 1.0658633982529864e-05, 1.4953628124203533e-05, 1.92486204468878e-05, 2.3543612769572064e-05, 2.7838606911245733e-05, 3.21336010529194e-05, 3.642859519459307e-05, 4.0723585698287934e-05, 4.50185798399616e-05, 4.931357398163527e-05, 5.3608564485330135e-05, 5.7903558627003804e-05, 6.219855276867747e-05, 6.649354327237234e-05, 7.078854105202481e-05, 7.508353155571967e-05, 7.937852933537215e-05, 8.367351983906701e-05, 8.796851034276187e-05, 9.226350812241435e-05, 9.655849862610921e-05, 0.00010085348912980407, 0.00010514848690945655, 0.00010944347741315141, 0.00011373846791684628, 0.00011803346569649875, 0.00012232846347615123, 0.00012662344670388848, 0.00013091844448354095]}, "gradients/encoder.conv.4.bias": {"_type": "histogram", "values": [1.0, 0.0, 0.0, 0.0, 0.0, 0.0, 0.0, 0.0, 0.0, 0.0, 0.0, 0.0, 0.0, 0.0, 0.0, 0.0, 0.0, 0.0, 0.0, 1.0, 1.0, 1.0, 0.0, 0.0, 0.0, 1.0, 0.0, 0.0, 0.0, 2.0, 3.0, 2.0, 0.0, 1.0, 1.0, 6.0, 0.0, 2.0, 9.0, 2.0, 3.0, 2.0, 1.0, 3.0, 3.0, 1.0, 5.0, 1.0, 3.0, 3.0, 1.0, 2.0, 0.0, 1.0, 0.0, 0.0, 0.0, 0.0, 1.0, 0.0, 0.0, 0.0, 0.0, 1.0], "bins": [-0.008436893112957478, -0.00821707397699356, -0.007997255772352219, -0.007777436636388302, -0.007557617500424385, -0.007337798830121756, -0.007117980159819126, -0.006898161023855209, -0.00667834235355258, -0.00645852368324995, -0.006238704547286034, -0.006018885876983404, -0.005799066741019487, -0.005579248070716858, -0.005359428934752941, -0.005139610264450312, -0.004919791594147682, -0.004699972923845053, -0.004480153787881136, -0.0042603351175785065, -0.00404051598161459, -0.0038206973113119602, -0.003600878408178687, -0.003381059505045414, -0.003161240369081497, -0.002941421465948224, -0.002721602562814951, -0.0025017838925123215, -0.0022819649893790483, -0.0020621460862457752, -0.001842327183112502, -0.0016225083963945508, -0.0014026896096765995, -0.0011828707065433264, -0.0009630519198253751, -0.000743233016692102, -0.0005234141717664897, -0.00030359532684087753, -8.377642370760441e-05, 0.0001360423630103469, 0.0003558611497282982, 0.0005756799946539104, 0.0007954988395795226, 0.0010153177427127957, 0.001235136529430747, 0.0014549554325640202, 0.0016747743356972933, 0.0018945931224152446, 0.0021144121419638395, 0.0023342310450971127, 0.0025540499482303858, 0.002773868851363659, 0.0029936875216662884, 0.0032135064247995615, 0.0034333253279328346, 0.003653143998235464, 0.003872963134199381, 0.00409278180450201, 0.004312600940465927, 0.004532419610768557, 0.004752238746732473, 0.004972057417035103, 0.00519187655299902, 0.005411695223301649, 0.0056315138936042786]}, "gradients/encoder.conv.4.weight": {"_type": "histogram", "values": [1.0, 0.0, 0.0, 1.0, 0.0, 0.0, 1.0, 2.0, 0.0, 6.0, 3.0, 1.0, 3.0, 3.0, 4.0, 4.0, 5.0, 4.0, 4.0, 11.0, 15.0, 18.0, 24.0, 26.0, 35.0, 49.0, 57.0, 85.0, 115.0, 193.0, 241.0, 381.0, 558.0, 852.0, 1411.0, 2308.0, 4239.0, 12632.0, 5125.0, 2972.0, 1856.0, 1211.0, 780.0, 498.0, 352.0, 242.0, 176.0, 115.0, 80.0, 42.0, 24.0, 22.0, 24.0, 19.0, 11.0, 6.0, 6.0, 1.0, 3.0, 2.0, 2.0, 0.0, 0.0, 3.0], "bins": [-0.0005610088701359928, -0.0005460313404910266, -0.0005310537526383996, -0.0005160762229934335, -0.0005010986933484674, -0.0004861211054958403, -0.0004711435758508742, -0.0004561660171020776, -0.000441188458353281, -0.00042621089960448444, -0.0004112333699595183, -0.00039625581121072173, -0.00038127825246192515, -0.00036630069371312857, -0.00035132316406816244, -0.00033634560531936586, -0.00032136807567439973, -0.00030639051692560315, -0.000291412987280637, -0.00027643542853184044, -0.00026145786978304386, -0.00024648034013807774, -0.00023150278138928115, -0.00021652522264048457, -0.00020154769299551845, -0.0001865701487986371, -0.0001715925900498405, -0.00015661504585295916, -0.00014163748710416257, -0.00012665994290728122, -0.00011168239871039987, -9.67048472375609e-05, -8.172725210897624e-05, -6.674970063613728e-05, -5.1772152801277116e-05, -3.6794604966416955e-05, -2.1817053493577987e-05, -6.839502020739019e-06, 8.138042176142335e-06, 2.3115593648981303e-05, 3.80931596737355e-05, 5.307071114657447e-05, 6.804826261941344e-05, 8.302580681629479e-05, 9.800335828913376e-05, 0.00011298090976197273, 0.00012795845395885408, 0.00014293601270765066, 0.0001579135423526168, 0.00017289108654949814, 0.00018786864529829472, 0.00020284618949517608, 0.00021782374824397266, 0.000232801292440854, 0.00024777883663773537, 0.00026275639538653195, 0.00027773395413532853, 0.0002927115128841251, 0.00030768904252909124, 0.0003226666012778878, 0.0003376441600266844, 0.000352621718775481, 0.0003675992484204471, 0.0003825768071692437, 0.0003975543368142098]}, "gradients/encoder.conv.2.bias": {"_type": "histogram", "values": [1.0, 1.0, 0.0, 1.0, 1.0, 0.0, 2.0, 1.0, 1.0, 0.0, 1.0, 0.0, 0.0, 3.0, 0.0, 0.0, 1.0, 0.0, 0.0, 0.0, 2.0, 3.0, 4.0, 4.0, 0.0, 2.0, 2.0, 4.0, 0.0, 2.0, 5.0, 1.0, 1.0, 2.0, 2.0, 3.0, 1.0, 2.0, 1.0, 0.0, 0.0, 1.0, 1.0, 0.0, 2.0, 1.0, 1.0, 0.0, 1.0, 0.0, 1.0, 0.0, 0.0, 0.0, 0.0, 0.0, 0.0, 1.0, 0.0, 0.0, 0.0, 0.0, 0.0, 1.0], "bins": [-0.007176466751843691, -0.006966020446270704, -0.00675557367503643, -0.006545127369463444, -0.006334681063890457, -0.0061242347583174706, -0.005913787987083197, -0.00570334168151021, -0.005492894910275936, -0.0052824486047029495, -0.005072001833468676, -0.004861555527895689, -0.004651109222322702, -0.0044406624510884285, -0.004230216145515442, -0.004019769839942455, -0.0038093235343694687, -0.0035988769959658384, -0.003388430690392852, -0.0031779841519892216, -0.002967537846416235, -0.0027570913080126047, -0.0025466447696089745, -0.002336198464035988, -0.002125751692801714, -0.0019153052708134055, -0.001704858848825097, -0.0014944123104214668, -0.0012839658884331584, -0.00107351946644485, -0.0008630729280412197, -0.0006526265060529113, -0.0004421807825565338, -0.00023173433146439493, -2.128788037225604e-05, 0.0001891585998237133, 0.00039960502181202173, 0.0006100514438003302, 0.0008204979822039604, 0.0010309444041922688, 0.0012413905933499336, 0.001451837015338242, 0.0016622834373265505, 0.0018727299757301807, 0.0020831762813031673, 0.0022936228197067976, 0.002504069358110428, 0.0027145156636834145, 0.0029249624349176884, 0.0031354089733213186, 0.0033458552788943052, 0.0035563018172979355, 0.003766748122870922, 0.003977194428443909, 0.004187641199678183, 0.004398087505251169, 0.004608534276485443, 0.00481898058205843, 0.005029427353292704, 0.00523987365886569, 0.005450319964438677, 0.005660766735672951, 0.005871213041245937, 0.006081659346818924, 0.0062921056523919106]}, "gradients/encoder.conv.2.weight": {"_type": "histogram", "values": [1.0, 0.0, 0.0, 0.0, 1.0, 5.0, 1.0, 2.0, 7.0, 3.0, 3.0, 1.0, 12.0, 15.0, 18.0, 19.0, 37.0, 56.0, 75.0, 109.0, 197.0, 356.0, 526.0, 943.0, 1705.0, 3061.0, 6746.0, 11303.0, 3769.0, 1768.0, 919.0, 529.0, 250.0, 132.0, 72.0, 50.0, 24.0, 20.0, 11.0, 3.0, 6.0, 3.0, 1.0, 1.0, 0.0, 1.0, 1.0, 0.0, 0.0, 2.0, 1.0, 0.0, 0.0, 1.0, 0.0, 1.0, 0.0, 0.0, 0.0, 0.0, 0.0, 0.0, 0.0, 1.0], "bins": [-0.0006883930182084441, -0.0006630714051425457, -0.0006377497920766473, -0.0006124281790107489, -0.0005871065659448504, -0.000561784952878952, -0.0005364633398130536, -0.0005111417267471552, -0.00048582014278508723, -0.0004604985297191888, -0.0004351769166532904, -0.00040985533269122243, -0.000384533719625324, -0.0003592121065594256, -0.0003338904934935272, -0.00030856888042762876, -0.00028324726736173034, -0.0002579256542958319, -0.0002326040412299335, -0.0002072824427159503, -0.0001819608296500519, -0.00015663921658415347, -0.00013131761807017028, -0.00010599600500427186, -8.06744210422039e-05, -5.535281161428429e-05, -3.003120218636468e-05, -4.709596396423876e-06, 2.0612016669474542e-05, 4.593362973537296e-05, 7.125522824935615e-05, 9.657684131525457e-05, 0.00012189842527732253, 0.00014722003834322095, 0.00017254165140911937, 0.00019786324992310256, 0.00022318486298900098, 0.0002485064906068146, 0.0002738280745688826, 0.000299149687634781, 0.0003244713298045099, 0.0003497929428704083, 0.0003751145559363067, 0.00040043616900220513, 0.00042575778206810355, 0.00045107939513400197, 0.00047640097909606993, 0.0005017225630581379, 0.0005270441761240363, 0.0005523657891899347, 0.0005776874022558331, 0.0006030090153217316, 0.00062833062838763, 0.0006536522414535284, 0.0006789738545194268, 0.0007042954675853252, 0.0007296170806512237, 0.0007549386937171221, 0.0007802603067830205, 0.0008055819198489189, 0.0008309035329148173, 0.0008562251459807158, 0.0008815467590466142, 0.0009068683721125126, 0.0009321899269707501]}, "gradients/encoder.conv.0.bias": {"_type": "histogram", "values": [1.0, 0.0, 0.0, 0.0, 0.0, 0.0, 0.0, 0.0, 0.0, 0.0, 0.0, 0.0, 0.0, 0.0, 0.0, 0.0, 0.0, 0.0, 0.0, 0.0, 0.0, 0.0, 0.0, 0.0, 0.0, 1.0, 0.0, 1.0, 0.0, 0.0, 1.0, 0.0, 1.0, 1.0, 1.0, 0.0, 3.0, 8.0, 0.0, 2.0, 2.0, 1.0, 2.0, 1.0, 2.0, 1.0, 0.0, 0.0, 0.0, 0.0, 0.0, 0.0, 0.0, 1.0, 0.0, 1.0, 0.0, 0.0, 0.0, 0.0, 0.0, 0.0, 0.0, 1.0], "bins": [-0.03179699927568436, -0.031013045459985733, -0.03022909164428711, -0.029445135965943336, -0.028661182150244713, -0.02787722833454609, -0.027093272656202316, -0.026309318840503693, -0.02552536502480507, -0.024741411209106445, -0.02395745739340782, -0.02317350171506405, -0.022389547899365425, -0.0216055940836668, -0.02082163840532303, -0.020037684589624405, -0.01925373077392578, -0.018469776958227158, -0.017685823142528534, -0.01690186746418476, -0.016117913648486137, -0.015333959832787514, -0.014550005085766315, -0.013766050338745117, -0.012982096523046494, -0.01219814270734787, -0.011414187960326672, -0.010630233213305473, -0.00984627939760685, -0.009062325581908226, -0.008278370834887028, -0.007494416553527117, -0.006710460409522057, -0.005926506128162146, -0.005142551846802235, -0.004358597565442324, -0.0035746432840824127, -0.0027906890027225018, -0.002006734721362591, -0.0012227804400026798, -0.00043882615864276886, 0.0003451281227171421, 0.001129082404077053, 0.001913036685436964, 0.002696990966796875, 0.003480945248156786, 0.004264899529516697, 0.005048853810876608, 0.005832808092236519, 0.00661676237359643, 0.007400716654956341, 0.008184671401977539, 0.008968625217676163, 0.009752579033374786, 0.010536533780395985, 0.011320488527417183, 0.012104442343115807, 0.01288839615881443, 0.013672350905835629, 0.014456305652856827, 0.01524025946855545, 0.016024213284254074, 0.016808167099952698, 0.01759212277829647, 0.018376076593995094]}, "gradients/encoder.conv.0.weight": {"_type": "histogram", "values": [1.0, 0.0, 0.0, 2.0, 0.0, 1.0, 0.0, 3.0, 5.0, 7.0, 1.0, 7.0, 15.0, 12.0, 11.0, 10.0, 13.0, 13.0, 13.0, 28.0, 21.0, 24.0, 26.0, 28.0, 40.0, 73.0, 91.0, 107.0, 146.0, 203.0, 259.0, 322.0, 399.0, 507.0, 558.0, 902.0, 1297.0, 742.0, 526.0, 357.0, 310.0, 231.0, 170.0, 164.0, 139.0, 87.0, 64.0, 58.0, 40.0, 47.0, 46.0, 21.0, 13.0, 8.0, 8.0, 7.0, 3.0, 3.0, 2.0, 0.0, 0.0, 0.0, 0.0, 1.0], "bins": [-0.0027891271747648716, -0.002711933571845293, -0.002634739736095071, -0.0025575461331754923, -0.00248035229742527, -0.0024031586945056915, -0.0023259648587554693, -0.0022487712558358908, -0.0021715774200856686, -0.00209438381716609, -0.002017189981415868, -0.0019399962620809674, -0.001862802542746067, -0.0017856088234111667, -0.0017084151040762663, -0.0016312215011566877, -0.0015540277818217874, -0.001476834062486887, -0.0013996403431519866, -0.0013224466238170862, -0.0012452529044821858, -0.0011680591851472855, -0.001090865582227707, -0.0010136717464774847, -0.0009364781435579062, -0.0008592844242230058, -0.0007820907048881054, -0.000704896985553205, -0.0006277032662183046, -0.0005505095468834043, -0.0004733158857561648, -0.0003961221664212644, -0.0003189283888787031, -0.00024173466954380274, -0.0001645409647608176, -8.734725997783244e-05, -1.0153540642932057e-05, 6.704017869196832e-05, 0.00014423386892303824, 0.00022142758825793862, 0.0002986213658004999, 0.0003758150851354003, 0.0004530088044703007, 0.000530202523805201, 0.0006073962431401014, 0.0006845899624750018, 0.0007617836236022413, 0.0008389773429371417, 0.0009161710040643811, 0.0009933647233992815, 0.0010705584427341819, 0.0011477521620690823, 0.0012249458814039826, 0.001302139600738883, 0.0013793332036584616, 0.0014565270394086838, 0.0015337206423282623, 0.0016109143616631627, 0.001688108080998063, 0.0017653018003329635, 0.0018424955196678638, 0.0019196892390027642, 0.0019968829583376646, 0.002074076561257243, 0.0021512703970074654]}, "_wandb": {"runtime": 6303}}